{"attention": {"key": {"bias": [[-0.057978615164756775, -0.0507526658475399, -0.18921518325805664, -0.5170149207115173, -0.09660053998231888, -0.06319446116685867, 0.1733093559741974, -0.38166356086730957, 0.09287375211715698, 0.2573717534542084, -0.4188082814216614, -0.14053545892238617, 0.014788186177611351, -0.1925051361322403, -0.10162843763828278, -0.012969402596354485]], "kernel": [[[0.19812998175621033, -0.5061363577842712, 0.42454296350479126, 0.6405509114265442, 0.46679291129112244, -0.016202175989747047, 0.3729688227176666, -0.8985579609870911, -0.130687415599823, -0.06776905059814453, 1.0627321004867554, 0.8543833494186401, 0.27410635352134705, 0.30353114008903503, -0.8861852288246155, 0.7124577760696411]], [[-0.4513358175754547, -0.49452894926071167, -0.018464408814907074, 0.321347713470459, -0.5144551396369934, -0.3274763226509094, 1.5546939373016357, -0.4165867865085602, 0.3088673949241638, -0.4609925150871277, 0.19087497889995575, -0.28344130516052246, -0.37541934847831726, -0.2818358838558197, -0.2105492502450943, -1.2675154209136963]], [[-0.13300324976444244, 0.44903770089149475, 0.04576793685555458, 0.32654181122779846, 0.997256338596344, -0.29534295201301575, -0.6370090246200562, 0.5890027284622192, -0.09830526262521744, -0.34333887696266174, 0.42354822158813477, -0.0664462298154831, 0.5640693306922913, 0.2225545048713684, 0.3224174380302429, 0.8919606804847717]], [[0.9290319681167603, 0.5611096620559692, -0.11460408568382263, -0.3335845172405243, 0.2620850205421448, 0.008026796393096447, 0.3457350432872772, -0.05837111547589302, -0.6192055940628052, 0.1382422000169754, 0.28836876153945923, 0.8038558959960938, 0.07622069120407104, 0.5271672010421753, -0.15748558938503265, -0.12145555764436722]], [[0.21196714043617249, 1.1407582759857178, -1.1460994482040405, -0.4551505744457245, 0.23650097846984863, -1.0210649967193604, -0.42152947187423706, 0.5042764544487, 0.34102436900138855, 0.3887093961238861, -0.43981143832206726, -0.6250254511833191, 0.717070460319519, -0.2328176498413086, 1.1801211833953857, -0.2670498490333557]], [[-1.5145747661590576, -1.1126147508621216, 0.7485950589179993, 0.13125978410243988, -0.561882495880127, -0.5277742147445679, 0.4145895540714264, -0.10806053131818771, 0.9331178665161133, -0.19649724662303925, -0.5966863632202148, -0.8403274416923523, -0.6487129330635071, -1.0518299341201782, -0.1604936122894287, -1.7194870710372925]], [[1.1893298625946045, -0.13097141683101654, 1.1377270221710205, 0.5898027420043945, 0.29660579562187195, 0.8695089221000671, -0.5940701961517334, 0.8232818245887756, -0.9019923210144043, -0.7079200744628906, 0.42685872316360474, 0.40744051337242126, 0.3604860305786133, 1.1607807874679565, 0.45761558413505554, 1.6527602672576904]], [[-1.304829716682434, -1.3437142372131348, 0.6259114742279053, -0.10578418523073196, -1.0413674116134644, -1.074649691581726, 0.8575493097305298, -0.7692590951919556, 0.42169928550720215, 0.032303448766469955, -0.740618109703064, -0.050058864057064056, -0.3963105380535126, -0.8949105739593506, -0.09596340358257294, -1.6687251329421997]], [[-0.11498010158538818, 0.10243043303489685, -0.32176661491394043, -0.6337926387786865, 0.13899871706962585, 0.056571800261735916, -0.19490531086921692, -0.22440530359745026, 0.6632259488105774, -0.30306270718574524, -0.611017107963562, 0.003082935931161046, -0.43858376145362854, 0.48971036076545715, 0.20283199846744537, 0.2608037292957306]], [[-0.7039118409156799, 0.34281644225120544, -0.0961814597249031, 0.038188785314559937, 0.8438143730163574, -0.5344790816307068, -0.37679293751716614, 0.2606132924556732, 0.5523915886878967, 0.2548768222332001, 0.2907971739768982, -0.38641008734703064, 0.7532044649124146, 0.4850624203681946, -0.002916069934144616, 0.305392861366272]], [[2.0420215129852295, 0.24817125499248505, -0.242786705493927, 0.04880046471953392, 0.780279278755188, 0.6286361813545227, -0.4690328538417816, 0.6018255949020386, -1.1677130460739136, -0.8101552724838257, 0.5496248602867126, 0.8653448820114136, 0.5069777965545654, 0.9364364743232727, 0.22352075576782227, 0.5787060856819153]], [[0.7360910177230835, -0.6170631647109985, 0.70949786901474, 0.6944584846496582, 0.309226930141449, 0.6216399669647217, 1.6427961587905884, -0.6671311259269714, -0.5851796269416809, -0.269375205039978, 0.8614165782928467, 0.8975382447242737, -0.20039555430412292, 0.9951576590538025, 0.05647264048457146, 0.3716655373573303]], [[-0.5142421126365662, -1.1072100400924683, 0.7572197318077087, 0.2672329246997833, -0.712364912033081, -0.20740582048892975, 0.9370696544647217, -0.639570951461792, -0.02747262828052044, -0.862810492515564, 0.3159535527229309, 0.9266960024833679, -0.48354437947273254, 0.34071627259254456, 0.07432105392217636, -0.8289830684661865]], [[-1.198552131652832, -0.25331753492355347, 0.005494104232639074, -1.236536979675293, -1.275972843170166, -0.8661099076271057, -0.3497418165206909, 0.7137411236763, 1.5616436004638672, 0.8461336493492126, -1.749279260635376, -0.9598714113235474, 0.12391190975904465, -2.1443357467651367, -0.30067214369773865, -1.1803964376449585]], [[0.44770580530166626, 0.2060413658618927, 0.8691911697387695, -0.38427242636680603, 0.2421564906835556, 0.36793410778045654, -0.08059728145599365, 0.18945257365703583, -0.2274540364742279, -0.134494811296463, -0.18580779433250427, -0.28447145223617554, 0.47360095381736755, 0.3702227473258972, 0.40930548310279846, 0.7372304201126099]], [[0.5891202688217163, 0.8388829827308655, -0.16825225949287415, 0.06957285106182098, 0.2571207582950592, 0.09796249121427536, -0.6980645656585693, 0.24521778523921967, -0.20477259159088135, 0.2287035584449768, 0.07138510048389435, -0.11440490186214447, 0.6937923431396484, 0.22918950021266937, 0.05394543707370758, 0.7514601349830627]]]}, "out": {"bias": [0.10599945485591888, 0.12282468378543854, -0.1320442259311676, -0.4132937490940094, 0.6471025347709656, -0.23067885637283325, 0.5646119713783264, -0.08462575823068619, -0.7725092768669128, 0.18771053850650787, -0.09315221011638641, -0.08124958723783493, -0.15063655376434326, 0.5365782976150513, -0.4034895598888397, 0.4311543107032776], "kernel": [[[1.6514228582382202, -1.2551214694976807, -1.0663681030273438, 0.6182524561882019, 0.668138325214386, 1.462084412574768, 1.2702336311340332, 1.3846664428710938, -0.7893533706665039, 0.011388305574655533, -1.295031189918518, -2.0913169384002686, -1.2438822984695435, -0.8591407537460327, -0.5081548094749451, 0.9474071264266968], [0.16863751411437988, -0.27265599370002747, -1.682335376739502, -0.09328065812587738, 1.2905012369155884, -0.07388855516910553, 0.6544253826141357, -0.24007827043533325, 0.027943093329668045, -1.028846025466919, -0.4444906413555145, 0.054973043501377106, -0.31406712532043457, -0.5782422423362732, 0.7414895296096802, 0.824081540107727], [0.555770754814148, -0.43365055322647095, -1.5240366458892822, -0.34997934103012085, 0.17662303149700165, -0.08210095018148422, 0.8278636932373047, 0.6142667531967163, 0.08490443229675293, -0.8331183195114136, -0.15440183877944946, -0.431431382894516, -0.3143780827522278, -0.6203668713569641, -0.019008291885256767, 0.4434581995010376], [0.2541837990283966, 0.19520018994808197, -0.8417762517929077, 0.3710100054740906, 0.5762234926223755, -0.7025655508041382, 0.6956005692481995, 0.08473608642816544, -0.5698604583740234, -0.7463037371635437, -0.07968675345182419, -0.3108171820640564, -0.42274293303489685, -0.08323565125465393, 0.21401362121105194, 1.0117883682250977], [0.35931217670440674, -0.007959136739373207, 0.12491966038942337, -0.5093031525611877, -0.5472674369812012, 0.1543952375650406, 0.0008378136553801596, 0.08185504376888275, 0.09270943701267242, 0.0707363486289978, -0.31641703844070435, -0.7845166325569153, 0.15060174465179443, 0.0971258208155632, -0.08190921694040298, 0.3518829941749573], [0.36255010962486267, 0.002750842832028866, -0.1867799609899521, 0.13724255561828613, -0.20405711233615875, 0.15507252514362335, -0.36598852276802063, 0.09968259185552597, 0.17445465922355652, 0.05163153260946274, -0.0005048905150033534, 0.3168719410896301, 0.15091702342033386, -0.7661800980567932, -0.22536243498325348, -0.14748930931091309], [0.6837244033813477, -0.3518301546573639, -0.27794018387794495, 0.4290556311607361, 0.2653055191040039, 0.2891773283481598, 0.35520800948143005, 0.438203364610672, -0.859391987323761, -0.27886733412742615, -0.1339377462863922, -0.7744461894035339, -0.025891851633787155, -0.428609162569046, -0.10603617131710052, 0.45743268728256226], [0.09308422356843948, -0.9303882122039795, 0.6834425926208496, 0.3881487548351288, -0.7186864614486694, 0.4844911992549896, -0.33840712904930115, 0.49398982524871826, 0.04727448150515556, 1.0777491331100464, -0.5202712416648865, -0.9229257702827454, -0.5668115615844727, -0.4524558186531067, -0.7993239760398865, -0.4531649351119995], [-0.46497517824172974, -0.0968792736530304, -0.6771500706672668, -0.5694578886032104, 0.4034024178981781, -0.8696340322494507, -0.0274688508361578, -1.2092015743255615, 0.6362770199775696, -1.0834462642669678, 0.5560237765312195, 0.6910219788551331, 0.5343658328056335, 0.15796074271202087, 0.838130533695221, 0.12921667098999023], [0.07592437416315079, 0.059352584183216095, -0.10400690883398056, -0.45842811465263367, -0.2696938216686249, 0.253118634223938, -0.03442780673503876, 0.49319809675216675, 0.12073281407356262, 0.1475607007741928, 0.32392773032188416, -0.30648744106292725, -0.058986786752939224, 0.39103299379348755, -0.09812361747026443, -0.06014774367213249], [0.6805147528648376, -0.2938091456890106, 0.025187503546476364, 0.4006010890007019, -0.363080233335495, 1.1002451181411743, 0.4937027096748352, 0.4070225954055786, -0.05476362630724907, -0.3326871991157532, -0.24868865311145782, -1.2090076208114624, -0.4812663495540619, -0.6200095415115356, -1.0914872884750366, -0.022458283230662346], [0.2499898076057434, -0.10166013985872269, 0.16544167697429657, -0.17383232712745667, -0.5012562870979309, 0.5597068667411804, -0.12221159785985947, -0.04589103162288666, 0.3209327459335327, -0.30426356196403503, -0.10078712552785873, -0.03509097918868065, 0.2944618761539459, 0.04244840890169144, -0.004902031738311052, 0.13109183311462402], [0.20818069577217102, 0.2408689558506012, -0.16637340188026428, 0.2587253451347351, -0.22267471253871918, -0.377223402261734, -0.09435583651065826, -0.01959710381925106, 0.21367239952087402, -0.06526517122983932, -0.6501690149307251, 0.35633525252342224, -0.29155680537223816, -0.3184365928173065, -0.13530558347702026, 0.23219116032123566], [-0.1604570746421814, 0.156342551112175, 0.12318596243858337, -0.07660844177007675, 0.24040646851062775, -0.08231068402528763, 0.09497202187776566, 0.03322698548436165, -0.12984147667884827, -0.19877390563488007, -0.265101820230484, 0.13920697569847107, -0.20571543276309967, 0.25055673718452454, -0.03743276000022888, 0.4645490348339081], [-0.7027281522750854, 0.5142710208892822, -0.34631502628326416, -0.5622877478599548, 0.6757319569587708, -0.8730990886688232, -0.08301548659801483, -0.6867921948432922, 0.2486802488565445, -1.0265036821365356, 0.4186329245567322, 0.7706075310707092, 0.05785660445690155, 0.20200830698013306, 0.2248200923204422, -0.1596514880657196], [-0.5788343548774719, -0.0027322613168507814, -0.8323850631713867, -0.6939090490341187, 0.5102157592773438, -0.7692111730575562, -0.018723752349615097, -0.48331335186958313, 0.4771479368209839, -0.7926020622253418, 0.7802945375442505, 0.7702382802963257, 0.016801735386252403, 0.024844085797667503, 0.8706661462783813, 0.32899147272109985]]]}, "query": {"bias": [[-0.11312185227870941, -0.46163150668144226, 0.9547528028488159, 0.8154800534248352, -0.2806870639324188, 0.4015420377254486, 0.5836824178695679, -0.3502015471458435, -0.06472497433423996, -0.5802381038665771, 0.50495445728302, 0.7928447127342224, -0.40874800086021423, 0.15965048968791962, -0.08106289058923721, -0.07806103676557541]], "kernel": [[[-0.2852151393890381, 0.19502459466457367, 0.09894508123397827, -0.5131441354751587, -0.6150385737419128, 0.15587815642356873, 0.06560640782117844, 0.18301816284656525, 0.37485644221305847, 0.5634708404541016, -0.9964563846588135, -0.7998268604278564, -0.19387683272361755, -0.5679024457931519, 0.41776159405708313, -0.13854876160621643]], [[-0.4016716182231903, -0.720875084400177, 1.0298759937286377, 0.5100179314613342, -0.01006282027810812, -0.2900133430957794, 0.27504193782806396, -0.32135969400405884, 0.03824777156114578, -0.5577390193939209, 0.06571944802999496, 0.21845974028110504, -0.5228198170661926, -0.03740068897604942, -0.20645347237586975, -0.7861018180847168]], [[0.4582449793815613, 0.43984463810920715, 0.15332302451133728, -0.18729126453399658, 0.28744107484817505, 0.20288747549057007, -0.11911217123270035, 0.3025268018245697, -0.5465802550315857, -0.4945811927318573, 0.44674476981163025, 0.16209658980369568, 0.3423484265804291, 0.32914045453071594, 0.7014605402946472, 0.12991869449615479]], [[-0.4316006898880005, -0.2512834370136261, 0.15769092738628387, -0.28227663040161133, -0.7253900170326233, 0.03291516378521919, 0.30991917848587036, -0.17062081396579742, 0.13968215882778168, -0.5385045409202576, -0.5945156812667847, -0.13812805712223053, -0.5139468908309937, -0.8988903760910034, -0.18390904366970062, -0.5898131728172302]], [[-0.016926364973187447, -0.3690292537212372, 0.5334916710853577, 0.6105930805206299, -0.1581839770078659, 0.5508741140365601, 0.2115493267774582, -0.39493608474731445, -0.3783477544784546, -0.12146790325641632, 0.5079195499420166, 0.7230293154716492, 0.0024569849483668804, 0.2827102541923523, -0.7365731596946716, 0.23615622520446777]], [[-0.1455550342798233, 0.2890911102294922, 0.24433664977550507, 0.18776966631412506, 0.07574675977230072, -0.3879333734512329, 0.40961939096450806, -0.062326911836862564, 0.16497422754764557, -0.10494624823331833, 0.18837669491767883, 0.10377909988164902, -0.03093801811337471, -0.007009014021605253, 0.17689478397369385, 0.43846362829208374]], [[0.16046260297298431, 0.6628319621086121, -1.269324541091919, -0.512321949005127, 0.8619198203086853, 0.18402829766273499, -0.6992927193641663, -0.10649789869785309, 0.014164426364004612, 0.9198684096336365, -0.11058551073074341, -0.7964941263198853, 0.7008262276649475, 0.2522101402282715, -0.06874406337738037, 0.35498467087745667]], [[-1.0372035503387451, -0.5891167521476746, 0.6703305244445801, 0.4112558662891388, -0.44641637802124023, -0.3297717571258545, 0.6682506799697876, -0.40024930238723755, 0.8513039350509644, -0.1263750195503235, -0.47371596097946167, -0.4243847727775574, -0.0169060081243515, -0.7336666584014893, -0.37760961055755615, -0.4177074730396271]], [[0.3436180353164673, 0.4809481203556061, -0.3161797523498535, -0.067678302526474, 0.6029061079025269, 0.6264677047729492, -1.0726137161254883, 0.66664719581604, 0.0047800177708268166, 0.8101423978805542, 0.536359429359436, -0.8429883122444153, 0.6818044781684875, 0.41300874948501587, -0.3144316077232361, 0.872820258140564]], [[0.08285567909479141, 0.37688910961151123, -0.2858634293079376, -0.08275950700044632, 0.05438505858182907, 0.4298860430717468, -0.31304997205734253, -0.05365302786231041, 0.020215997472405434, 0.1320059448480606, 0.2438596934080124, -0.053893521428108215, 0.23070384562015533, 0.5244268178939819, 0.3190743327140808, 0.540282130241394]], [[-0.5227373838424683, -0.5136745572090149, -0.12659204006195068, -0.18862491846084595, -0.3270103633403778, 0.030356718227267265, 0.5036424994468689, -0.6753644347190857, 0.1321558952331543, 0.08506622165441513, -0.35835665464401245, -0.00837435107678175, -0.1291351169347763, -0.7349724769592285, -0.4268449544906616, -0.35758787393569946]], [[-0.7327712774276733, -0.2810688316822052, -0.012337428517639637, -0.20677076280117035, -0.25335031747817993, -0.2659012973308563, 0.36654072999954224, -0.44748562574386597, 0.9437910914421082, 0.047121260315179825, -0.8375285267829895, 0.08557509630918503, -0.8856424689292908, -0.5423583388328552, -0.5162949562072754, -0.4404185712337494]], [[-1.6528749465942383, -1.2716724872589111, 0.7017441391944885, -0.23846374452114105, -1.2790451049804688, -1.4995516538619995, 1.4284666776657104, -1.4839133024215698, 1.5426044464111328, -0.08070056140422821, -1.4502708911895752, -0.40436699986457825, -0.688106894493103, -1.6806474924087524, -0.7135981321334839, -1.7699846029281616]], [[0.1862124651670456, 0.6968141794204712, -1.0693652629852295, -0.5901849865913391, 0.7577908635139465, 0.41733071208000183, -0.5562298893928528, 0.41823428869247437, 0.1336844265460968, 0.5725724697113037, 0.015657544136047363, -0.8027345538139343, 0.15105792880058289, 0.22271443903446198, 0.3546566069126129, 0.32975494861602783]], [[0.49584460258483887, -0.44562408328056335, 0.6574060916900635, 0.9079052805900574, -0.5645813941955566, 0.4698876738548279, 0.6971266865730286, -0.33585357666015625, -0.6790747046470642, -1.1663718223571777, 0.5904685258865356, 1.4983601570129395, -0.37638044357299805, -0.11398531496524811, -0.32583436369895935, -0.3419625759124756]], [[1.3307135105133057, 1.3646812438964844, -0.6842013001441956, 0.4028812646865845, 0.9416779279708862, 0.8600125908851624, -0.7695363759994507, 0.5974605679512024, -1.2451255321502686, 0.9261399507522583, 0.9604485630989075, 0.6403849720954895, 1.0681945085525513, 0.9889175891876221, -0.5679200291633606, 1.1142336130142212]]]}, "value": {"bias": [[0.28393271565437317, 0.3694343864917755, 0.12865139544010162, 0.32303643226623535, 0.310933917760849, 0.09860406070947647, 0.12623123824596405, -0.3287449777126312, -0.22717711329460144, 0.44977888464927673, -0.027154844254255295, 0.05854664370417595, -0.4060096740722656, -0.05899994820356369, -0.19210690259933472, 0.2778916656970978]], "kernel": [[[-0.33760085701942444, -0.5426076054573059, -0.3075641691684723, -0.23809465765953064, -0.09385921061038971, -0.00016920719644986093, -0.6601203083992004, -0.1689659208059311, 0.6418951749801636, -0.12768521904945374, -0.1263703554868698, -0.19525955617427826, 0.46740034222602844, 0.1995127648115158, 0.5779787302017212, -0.1726735532283783]], [[-0.4007222056388855, -0.059492770582437515, 0.051337435841560364, 0.25552716851234436, -0.1822887808084488, -0.4985288977622986, -0.5597581267356873, -0.17492583394050598, 0.20347917079925537, -0.2785297632217407, -0.7033565640449524, 0.07931151241064072, 0.1060355082154274, 0.08390452712774277, 0.14134658873081207, 0.5558165311813354]], [[0.7355470657348633, 0.4415924847126007, 0.3447345793247223, 0.5113672614097595, -0.022588830441236496, 0.06842980533838272, 0.7702434062957764, -0.11938446015119553, -0.21867500245571136, 0.03113372065126896, 0.6416038870811462, 0.29543718695640564, -0.015199653804302216, -0.12316057831048965, -0.21316847205162048, -0.149051234126091]], [[-0.046582069247961044, 0.03411372750997543, 0.011552711017429829, -0.30008262395858765, 0.2720797061920166, -0.13568216562271118, 0.05746565759181976, -0.22042176127433777, -0.1559646874666214, 0.05553552880883217, -0.5392533540725708, 0.12154766917228699, 0.1542454957962036, -0.027257082983851433, -0.2922675907611847, 0.14812611043453217]], [[1.226506233215332, -0.375006765127182, -0.0008341156062670052, 0.2133873999118805, 0.6511321067810059, 0.6252350211143494, 0.5328590869903564, 0.8739134669303894, -1.2508165836334229, 0.5561694502830505, 0.5555635094642639, 0.6317418813705444, -0.7831875085830688, -0.4739108979701996, -1.1909831762313843, -1.1565361022949219]], [[-0.400428831577301, -0.768736720085144, -0.3187614679336548, -0.17584477365016937, -0.0486704520881176, -0.5753423571586609, -0.3798571228981018, 0.5332624316215515, 0.028827132657170296, 0.16006174683570862, 0.20105406641960144, -0.20980341732501984, -0.3029085099697113, -0.09899318963289261, 0.10587304830551147, -1.0905417203903198]], [[-0.14981268346309662, -0.008574923500418663, 0.09421277046203613, 0.40051668882369995, 0.11848090589046478, 0.3549245595932007, -0.12620101869106293, -0.6096633672714233, -0.3453260064125061, -0.02160591073334217, 0.1956513375043869, -0.17967310547828674, -0.31261304020881653, 0.09156449139118195, 0.0377592071890831, 0.5718863606452942]], [[-1.0429878234863281, -0.6437464952468872, -0.93359375, -0.8351947665214539, -0.8728857636451721, -0.33973366022109985, -0.7189953327178955, -0.7638185024261475, 0.45504823327064514, -0.5310830473899841, -0.626147985458374, -0.6395826935768127, 0.30354487895965576, 0.42821410298347473, 1.0985898971557617, 0.38977766036987305]], [[0.4791743755340576, 0.917426347732544, 0.7443097233772278, 0.673961877822876, 0.546332836151123, -0.1599217653274536, 0.2611211836338043, -0.26660552620887756, 0.05062079057097435, 0.11526259034872055, 0.13552454113960266, -0.0073426514863967896, -0.16671782732009888, 0.4743192493915558, 0.22542597353458405, -0.031367313116788864]], [[0.29883092641830444, -0.6670368313789368, -0.06389942020177841, -0.37938952445983887, 0.533671498298645, -0.011181657202541828, 0.2159876525402069, 0.15166476368904114, -0.07149585336446762, 0.5349029302597046, 0.5342226624488831, 0.058680057525634766, 0.3836238980293274, 0.14453019201755524, 0.15259408950805664, -0.5984306335449219]], [[-0.5811358094215393, 0.31305158138275146, -0.13408127427101135, 0.07205736637115479, -0.547320544719696, 0.17999887466430664, -0.1835213452577591, -0.7408136129379272, 0.8420952558517456, -0.11161142587661743, -0.7088795304298401, -0.28331607580184937, 0.3726009428501129, 0.44906672835350037, 0.18702289462089539, 0.4107096493244171]], [[-0.7206874489784241, -4.170548709225841e-05, -0.43837812542915344, 0.25544247031211853, -0.408049076795578, -0.861500084400177, -0.6945282816886902, -0.8332715034484863, 1.270861268043518, -0.6797538995742798, -0.99358069896698, -0.45985937118530273, 0.7823825478553772, 0.05837470293045044, 0.9645799994468689, 0.34321314096450806]], [[-0.8070856332778931, -1.566918969154358, -1.185148000717163, -1.4119064807891846, 0.0029667264316231012, -0.280885249376297, -0.5511276721954346, 0.22497335076332092, -0.1583574414253235, -0.10462655872106552, -0.8710127472877502, 0.05027845874428749, 0.1907905787229538, 0.5938982367515564, 0.21407394111156464, -0.40246108174324036]], [[-0.41447871923446655, -0.6727980375289917, -0.5079668164253235, -1.022576928138733, -0.22000108659267426, 0.01293990109115839, -0.5809476971626282, 0.1667322814464569, -0.16501069068908691, -0.4625492990016937, 0.3962779641151428, -0.41986075043678284, 0.5248233079910278, -0.2562685012817383, 0.4425198435783386, -0.35427871346473694]], [[-0.2034391462802887, -0.186583012342453, -0.33144518733024597, -0.1981438398361206, 0.005443335045129061, -0.6558191180229187, -0.10692136734724045, -0.31036999821662903, 0.5061819553375244, -0.485869437456131, -0.20667439699172974, -0.6262404918670654, 0.2359182983636856, 0.4993076026439667, 0.042890891432762146, 0.10212364047765732]], [[0.7926936745643616, 0.2449403703212738, 0.7823458313941956, 0.854225218296051, -0.1429019421339035, 0.2989285886287689, 0.9742777347564697, -0.4212949275970459, -0.10370823740959167, 0.39138340950012207, 0.36137595772743225, 0.21677671372890472, -0.3783015012741089, 0.17626680433750153, 0.2519795298576355, 1.1403805017471313]]]}}, "global_gru_cell": {"dense_h": {"kernel": [[1.0950828790664673, 0.07655192911624908, 0.12944960594177246, 0.6777286529541016, -0.47469520568847656, -1.0576475858688354, 0.6527894735336304, 0.3937593400478363, 1.1750956773757935, 0.5240525007247925, -0.42873498797416687, 0.8616728782653809, 1.4247360229492188, -0.8853135108947754, 0.49917611479759216, 1.0818578004837036, 0.39815959334373474, 2.2171733379364014, -0.9248698949813843, -0.03641020879149437, -0.181751549243927, -0.4388253688812256, 0.12602467834949493, 0.4312915503978729], [1.4852683544158936, 0.18294480443000793, -0.5578458309173584, -0.5542265772819519, -0.6033815741539001, -0.9372224807739258, -0.7709223628044128, -0.39353668689727783, 0.6827898025512695, 1.091385841369629, -0.5229968428611755, 0.8254015445709229, 1.2674914598464966, 0.3504255414009094, 0.8955166935920715, 1.6325262784957886, 0.21320149302482605, -0.07120982557535172, -0.06025034934282303, 0.5094597339630127, -0.38471513986587524, -0.4569340944290161, 0.5348026156425476, 0.4831562936306], [1.0842103958129883, -0.34598127007484436, -0.6394619941711426, 0.7099621891975403, -0.36409658193588257, 0.19777707755565643, -1.3062437772750854, 0.3053499758243561, 0.3679068684577942, -0.6744878888130188, 1.1508874893188477, 0.05238134786486626, 0.043964311480522156, -1.3074653148651123, -0.29984527826309204, -0.3560582101345062, 1.1488511562347412, 0.4776952266693115, 0.008550688624382019, 0.013034435920417309, -0.3499438166618347, -0.6757747530937195, 0.27736565470695496, 0.5984609723091125], [-0.6708535552024841, 0.8786583542823792, 0.6100342273712158, -0.2531532645225525, 0.7235009074211121, 0.0525687150657177, 0.2736380696296692, -0.28315380215644836, -1.400757074356079, 0.030560865998268127, -0.6529762148857117, -1.0475459098815918, -1.3523470163345337, -0.13032415509223938, -0.5298857092857361, -0.24608713388442993, -0.9526512622833252, -0.7625308632850647, -0.8979876637458801, -0.04964529722929001, 0.058790288865566254, 0.8758417963981628, -0.670510470867157, -0.36245375871658325], [0.1174001395702362, -0.062167614698410034, -0.18833838403224945, -0.013860723935067654, -0.5239941477775574, -0.20699286460876465, -0.5754499435424805, 0.555243730545044, 0.6344539523124695, -0.7960352897644043, -0.049354128539562225, 0.5859287977218628, 0.8595387935638428, -0.2721596360206604, 0.04716348648071289, -0.4028226137161255, 0.9150817394256592, 0.5593180060386658, 0.06209225952625275, 0.06747324019670486, 0.39151328802108765, -0.36715370416641235, 0.42806026339530945, 0.35575881600379944], [-0.3908063769340515, 0.4327075779438019, -0.11688439548015594, -0.132547065615654, 0.5439112186431885, 1.6355996131896973, 0.0817718356847763, 0.6868840456008911, -0.11183379590511322, -0.9409192204475403, -0.9332385063171387, -1.2374969720840454, -1.6394022703170776, 0.5302846431732178, -1.6336523294448853, -2.2924652099609375, -1.1328576803207397, -1.6238185167312622, -0.8576650023460388, 1.4916950464248657, -0.8070719242095947, -0.001187024754472077, -0.34999561309814453, 0.5253987312316895], [-0.2234133780002594, 0.04028412327170372, 0.5790698528289795, -0.358471542596817, 0.7482416033744812, 0.17410622537136078, 0.9060538411140442, -0.24628864228725433, -0.2991933226585388, -0.03330892324447632, 0.34613966941833496, -0.30130743980407715, -0.31285056471824646, 0.5052715539932251, 0.17637641727924347, -0.3441866934299469, -0.5874592661857605, -0.31615546345710754, -0.057532645761966705, 0.017586760222911835, -0.09565592557191849, 0.6598221659660339, -0.4566155970096588, -0.09244168549776077], [-0.13726162910461426, -0.43186822533607483, -0.9691131711006165, -0.3653613328933716, -0.3721121847629547, 0.2667995095252991, 1.2433911561965942, -0.1321457475423813, 0.25748109817504883, -0.8819276690483093, -0.35622066259384155, -1.138647198677063, 0.039981283247470856, 0.4118172824382782, -0.39278507232666016, -0.4250519275665283, 0.18682701885700226, -0.5495866537094116, 0.20570038259029388, -0.49442756175994873, 0.5097976326942444, 0.2992865741252899, -0.093610480427742, -0.11258675903081894]]}, "dense_i": {"bias": [0.19268959760665894, 0.3200547695159912, -0.09548617154359818, -0.14134162664413452, 0.0382205955684185, -0.06802108138799667, -0.6875514388084412, -0.3435904085636139, 0.8206844925880432, -0.6947994828224182, 0.0993213877081871, 0.18151862919330597, 0.5798460245132446, -0.4109022319316864, 0.6416727304458618, 0.7979916930198669, -0.2949002683162689, -0.16835007071495056, -0.5007479786872864, 0.8613364696502686, -1.0827631950378418, -0.12724222242832184, 0.7496077418327332, 0.6370604634284973], "kernel": [[-0.4718781113624573, 0.6009639501571655, 0.22013086080551147, 0.8514425158500671, 0.26610368490219116, -0.26770055294036865, 0.35190048813819885, 0.29222238063812256, 1.195969581604004, -0.3382056653499603, 2.7000339031219482, 1.1980458498001099, 1.2544035911560059, -0.09152695536613464, 0.30763348937034607, 0.627499520778656, 0.09927976876497269, -0.3868682384490967, 0.11580665409564972, -0.4170752763748169, -0.4501149356365204, -0.011786938644945621, 0.7928951382637024, -0.017827700823545456], [0.5948961973190308, -0.12487094104290009, -0.07562278211116791, -0.5070542693138123, 0.5055521726608276, 0.2863011658191681, -0.4567206799983978, -0.43017053604125977, -0.3282370865345001, -0.07357646524906158, -1.430910348892212, -1.3304678201675415, -0.3442400097846985, 0.11451995372772217, -0.7180364727973938, -0.24780188500881195, -0.17444691061973572, 0.10739289224147797, -0.4856131970882416, 0.11957965046167374, -0.051711346954107285, 0.05892801657319069, -0.1904171258211136, -0.016731927171349525], [0.5528562664985657, -0.2579415440559387, 0.33667072653770447, -0.601714551448822, 0.24251900613307953, 0.0330183170735836, -0.7257258892059326, -0.4096584618091583, -0.7807058691978455, -0.23721492290496826, -0.4685784578323364, -1.1531234979629517, -0.6589872241020203, -1.083794116973877, -0.8830269575119019, 0.2838042378425598, 0.1878865510225296, 0.40433642268180847, 0.16387048363685608, -0.03790636360645294, -0.23736272752285004, 0.39179179072380066, 0.32822906970977783, -0.29599305987358093], [-0.0641869455575943, 0.21797117590904236, 0.449413001537323, -0.5880292057991028, -0.5592250823974609, 0.07127667218446732, 0.5364571809768677, -0.08186588436365128, -0.34936976432800293, -0.7884207963943481, 0.14402012526988983, -0.3790671229362488, -0.18161189556121826, -0.37651968002319336, -0.38987311720848083, -0.33930703997612, -0.0868627056479454, -0.6438719630241394, 0.34406498074531555, 0.18553520739078522, 0.017770953476428986, -0.2580764889717102, -0.0757393017411232, -0.20875456929206848], [0.005893965717405081, 0.5570021867752075, -0.45038631558418274, 1.4707880020141602, 0.777552604675293, -0.604036271572113, 0.9764984250068665, 0.7500643134117126, 0.8281978964805603, 0.7197659015655518, 0.6823114156723022, 1.5290673971176147, 1.4393420219421387, 0.345479279756546, 1.5695582628250122, 0.425591379404068, 0.5985528826713562, -0.591978132724762, -0.64744633436203, -0.5142921209335327, -0.37714070081710815, 0.061291392892599106, 0.06407316774129868, 0.519630491733551], [0.34079861640930176, 0.19651107490062714, -0.5114084482192993, 0.07556280493736267, 1.0128754377365112, 0.3155660927295685, 0.03095119819045067, 0.08609692007303238, 1.1120434999465942, -0.9249086380004883, 1.848494529724121, 0.23070162534713745, 0.4539048373699188, 0.8560148477554321, -0.4536948502063751, 0.7091789245605469, 0.4554445743560791, -0.5793243050575256, 0.19685663282871246, 0.46069785952568054, -0.46755126118659973, -0.21673454344272614, 0.5693175196647644, -0.8211086392402649], [-0.153763085603714, 1.134621262550354, -0.6448290348052979, 0.9818294048309326, 0.21632182598114014, -0.9390873312950134, 0.7948715090751648, 0.4181172847747803, 0.8267974257469177, 0.17758060991764069, 1.4496891498565674, 1.3538014888763428, 0.9262306094169617, 0.8074199557304382, 1.4488767385482788, 1.0225372314453125, 0.2936258912086487, -0.03283195197582245, -0.4292130470275879, -0.4381696283817291, -0.13746048510074615, 0.19580323994159698, 0.438298761844635, 0.4130319356918335], [-0.6874849200248718, 0.09152895212173462, -0.8365326523780823, 0.7033854126930237, -0.12424235790967941, -0.4812893867492676, 0.19328194856643677, 0.5988443493843079, 1.2400132417678833, 0.10367082804441452, 2.194962501525879, 0.532455563545227, 0.26408249139785767, -0.19127322733402252, 0.07618318498134613, 0.551609218120575, 0.1516042798757553, -0.467023640871048, 0.22747355699539185, 0.09915158897638321, -0.21181011199951172, 0.20926956832408905, 0.4892919361591339, 0.11239051818847656], [-0.19588561356067657, -0.32682791352272034, 0.40015339851379395, -0.5786786675453186, -0.49608585238456726, 1.576053500175476, -0.02112697809934616, -0.38506028056144714, -1.6450062990188599, 0.1379028707742691, -0.5604081153869629, -0.8823830485343933, -0.7215760350227356, 0.28181028366088867, -1.0479059219360352, -1.3035348653793335, -0.07806442677974701, -0.09901358932256699, 0.749653697013855, -1.1999934911727905, 1.062164068222046, -0.2191818505525589, -0.6156430840492249, -0.634560227394104], [1.1121573448181152, -0.19423288106918335, -0.618556022644043, 0.7862607836723328, 0.25984904170036316, -0.8111212253570557, 0.026667779311537743, -0.06449547410011292, 0.8110786080360413, -0.3725941777229309, -0.4299983084201813, 0.09981204569339752, -0.5117211937904358, 0.09962989389896393, 0.2580164074897766, -0.21034114062786102, 0.6982800960540771, 0.4753834009170532, 0.35048428177833557, 0.17356562614440918, -0.3612765073776245, -0.11623974144458771, 0.5210431218147278, 0.18125811219215393], [0.0634613111615181, -1.235967993736267, 0.6946998238563538, -1.4762158393859863, -0.19101957976818085, 0.42823508381843567, -0.5779566764831543, -1.0847970247268677, -0.492872416973114, 0.17320209741592407, 0.5105337500572205, -0.5359976291656494, -1.2000521421432495, 0.6989415287971497, -0.8841661214828491, -0.530633807182312, -0.1311776489019394, -0.012533466331660748, -0.15503795444965363, 0.5364231467247009, 0.75448077917099, -0.0875672698020935, -0.4356558322906494, 0.2571840286254883], [0.30989009141921997, -0.5626199841499329, 0.49940821528434753, -0.0019635031931102276, -0.9155737161636353, 0.5001779198646545, 0.012324808165431023, -0.3960663676261902, -0.7986108064651489, 0.06630872935056686, -1.5557208061218262, -0.30810368061065674, -0.1925209015607834, -1.2660632133483887, -0.055520810186862946, -0.746372640132904, -0.34049755334854126, 0.41919180750846863, 0.021894436329603195, -0.08936137706041336, 0.30932772159576416, -0.214321106672287, -0.9268854260444641, 0.5270594358444214], [0.41720908880233765, -0.22366072237491608, 0.2645912766456604, -0.4203466475009918, -0.0348907932639122, 0.181864395737648, -0.29232633113861084, 0.12027410417795181, -0.7452003955841064, 0.32145947217941284, -1.8355666399002075, -0.4798911213874817, -0.4830445945262909, 0.3035714030265808, -0.6831586956977844, -0.39350995421409607, -0.14952929317951202, 0.01795201003551483, 0.15980340540409088, -0.39719414710998535, 0.2609400153160095, 0.006099494639784098, -0.782782793045044, 0.2876477837562561], [0.34997445344924927, 0.3269299566745758, 0.45937982201576233, 0.18841923773288727, 0.221209317445755, -0.4804338812828064, -0.16122902929782867, -0.4842686951160431, -0.2788268029689789, -0.29441627860069275, -0.9218049645423889, -0.32360848784446716, -0.42690396308898926, -0.5881945490837097, 0.4295293688774109, 0.010689105838537216, 0.25607869029045105, 0.5385667085647583, -0.10692960023880005, 0.22507065534591675, -0.25695425271987915, 0.12064465880393982, -0.2619687020778656, 0.046720970422029495], [0.2026246339082718, -0.38322964310646057, 0.6083804965019226, 0.7290673851966858, -0.09595482051372528, 1.0043635368347168, 0.05535507947206497, -0.17276544868946075, -1.13047194480896, 0.3976617455482483, -0.6715941429138184, -0.2587476968765259, -0.5140327215194702, -0.8691721558570862, -0.1780574917793274, -1.397828221321106, 0.48704418540000916, -0.46876975893974304, 0.7630621194839478, -0.8182167410850525, 0.3707098960876465, -0.022953873500227928, -0.4362536370754242, 0.1015525683760643], [0.14669086039066315, 0.05624876916408539, -0.07026458531618118, 1.0181950330734253, -0.16547754406929016, -0.23928821086883545, 0.48800283670425415, 0.8263124823570251, 0.9485721588134766, 0.5575257539749146, 0.9042762517929077, 1.5725520849227905, 0.9216700792312622, 0.42432281374931335, 0.9391657114028931, 0.8444644808769226, 0.35238173604011536, -0.15818895399570465, -0.03868788108229637, -0.1625806838274002, -0.28835704922676086, -0.13050547242164612, -0.03715728223323822, 0.5506911277770996], [-0.020756591111421585, 0.2889426350593567, -0.31421664357185364, -0.3112524151802063, -0.16249774396419525, 0.25946319103240967, -0.3847503960132599, -0.6025195717811584, 0.7652584910392761, -0.5870472192764282, -0.3210564851760864, 0.2622388005256653, 1.084634780883789, -0.4781551659107208, 0.7556031346321106, 1.2510000467300415, -0.5720795392990112, -0.5546947121620178, -0.355747789144516, 0.8120931386947632, -1.0565011501312256, -0.3218947649002075, 0.8079100847244263, 1.0238274335861206], [-0.1716121882200241, -1.960280418395996, -1.3422895669937134, 0.17656314373016357, -0.8426716923713684, -0.6735476851463318, 1.0112091302871704, 0.7496943473815918, 0.24161894619464874, 3.3846547603607178, -0.31706276535987854, -0.6281298995018005, 0.8500515222549438, -1.4734232425689697, 0.02456269972026348, 0.3343313932418823, 1.6808876991271973, -1.5910866260528564, -0.45071905851364136, 0.6982600092887878, 0.2505475580692291, -1.5349960327148438, 0.5982733368873596, 1.5392907857894897]]}}, "gru_cell": {"dense_h": {"kernel": [[-0.2120143175125122, 0.1966235190629959, -0.03318990021944046, 0.4542202949523926, -1.273725986480713, 0.4253027141094208, -0.09273836016654968, -0.03639008849859238, 0.4208407700061798, 0.10233963280916214, 0.0419125072658062, -0.27588775753974915, -0.5663057565689087, -0.033788446336984634, 0.5738627910614014, 0.7390036582946777, 0.2899484932422638, -0.04788719862699509, -0.3444499373435974, -0.21126265823841095, 1.3932442665100098, -0.21907928586006165, -1.3348166942596436, -0.12101098895072937, -0.46182000637054443, 0.3196781873703003, -0.004237474408000708, 0.4246668815612793, 0.027900172397494316, -1.3153711557388306, -0.7746939063072205, -0.026525743305683136, 0.40457430481910706, -0.09282522648572922, -0.6658250689506531, 0.5710465908050537, -0.7995256185531616, -0.33470281958580017, -0.3286421000957489, 0.28281304240226746, 0.055508293211460114, -0.7174242734909058, 0.4425082206726074, 0.4412141442298889, -0.1363762468099594, -0.4150458872318268, -0.6773481369018555, -0.1997402012348175], [0.267341673374176, -0.013445673510432243, 0.48160162568092346, -0.006568068638443947, 0.08290065824985504, 0.013639275915920734, -0.4160033166408539, 0.15070606768131256, -1.5084248781204224, 0.5159753561019897, 0.09111960977315903, 1.0057233572006226, 0.3647570013999939, -0.0471489280462265, -0.4859064221382141, -0.027172263711690903, 0.31197652220726013, -0.4136936068534851, 0.6756048798561096, 0.23616330325603485, -0.5681219696998596, 0.4686381220817566, 0.9125257730484009, -0.692353367805481, 0.2388111650943756, 0.34232205152511597, 0.11120402067899704, -0.457896888256073, 0.07271840423345566, 0.17568744719028473, 0.6288295388221741, -0.1524403840303421, -0.016777686774730682, -0.649798572063446, 0.4589122235774994, -0.4402196705341339, 1.0771281719207764, -0.31493285298347473, -0.2717195749282837, -0.48817121982574463, 0.10308026522397995, 0.40787652134895325, -0.5046699643135071, -0.697186291217804, -0.3637177348136902, -0.07477311789989471, 0.05260973051190376, -0.10848657786846161], [1.478005051612854, -0.010458262637257576, 0.11840864270925522, -0.19798792898654938, 0.6837406754493713, -0.3102271556854248, 0.5936050415039062, 0.10942570120096207, 0.7844594717025757, -0.029131578281521797, -0.41521283984184265, 0.27406084537506104, 1.10010826587677, 0.027725428342819214, -0.06792748719453812, -0.00823152344673872, 0.5840320587158203, 0.3203449547290802, -0.3014567494392395, 0.33830687403678894, -0.8216718435287476, 1.0230027437210083, 0.41213497519493103, -0.24631087481975555, -0.20061419904232025, -0.524448037147522, -0.5065471529960632, -0.18190565705299377, -0.9901970624923706, 1.1986726522445679, 0.44844725728034973, -1.6440000534057617, -0.10485539585351944, -0.07619915902614594, 0.47455623745918274, -0.11262089759111404, -0.3261348307132721, -0.20327335596084595, 0.24917738139629364, -0.6255426406860352, -0.46475961804389954, -0.1942862868309021, 0.4076537787914276, 0.6106143593788147, -0.2687281370162964, 0.15411998331546783, 0.18648239970207214, 0.007498042657971382], [-0.8958019018173218, 0.30127906799316406, 0.3487173616886139, 0.5724303722381592, -0.7269059419631958, 0.7491101622581482, -0.3585090935230255, -0.03651164099574089, 0.3701128661632538, 0.08605434745550156, 0.19970150291919708, -0.32289919257164, -0.834527850151062, 0.09981522709131241, 0.8705343008041382, 0.7144208550453186, -0.3802206516265869, -0.46150723099708557, 0.12009638547897339, 0.4139937460422516, 0.8577075004577637, -0.04936055839061737, -0.781744658946991, -0.16697761416435242, 0.001601482043042779, 0.29443666338920593, 0.3905934989452362, 0.5108122825622559, 0.021401559934020042, -1.29487943649292, -0.7640376091003418, 0.04382535442709923, 0.34452083706855774, -0.06082407012581825, -0.3790937662124634, -0.09615464508533478, 0.1703299731016159, -0.09880620241165161, -0.10861183702945709, 0.5276588797569275, 0.32536470890045166, 0.07477061450481415, -0.12070390582084656, -0.218588724732399, 0.31610265374183655, -0.4222639203071594, -0.3413158357143402, -0.043103866279125214], [-0.3028978705406189, -0.1849295198917389, 0.29495498538017273, -0.21624158322811127, -1.215767741203308, -1.1285537481307983, -0.2853192090988159, -0.2912931740283966, -0.243006631731987, 0.22070422768592834, 0.35097309947013855, -0.16080500185489655, -0.5355021357536316, 0.8505493998527527, -0.11644396930932999, -0.32692191004753113, -0.24681103229522705, 1.2174816131591797, 0.07349616289138794, -0.35842669010162354, 0.3043227791786194, 0.09216273576021194, 1.3180911540985107, 1.5360398292541504, -0.16454938054084778, 0.15648029744625092, -0.6025324463844299, 0.5135781168937683, 0.3083938956260681, 0.10710366815328598, -0.6436312794685364, 0.9028522372245789, 0.4477148652076721, 0.217744842171669, -0.5899897813796997, 0.637589156627655, -0.4563958942890167, 0.6876630783081055, -0.679466724395752, -0.13654446601867676, 0.11976432800292969, -0.8187700510025024, 0.5411854982376099, -0.9732345342636108, -0.5847126841545105, 0.9301360249519348, 0.7857593297958374, -0.5112956166267395], [-0.4179691970348358, -0.3587636351585388, 0.15639252960681915, -0.25778523087501526, 0.747928261756897, -0.9611477851867676, -0.07837548106908798, -0.41286522150039673, -0.29908621311187744, 0.11556637287139893, -0.26475271582603455, 0.6234066486358643, 0.4026496112346649, 0.22846825420856476, -1.0666731595993042, 0.11675093322992325, -0.12848375737667084, 0.1216559186577797, 0.36136019229888916, -0.2595796287059784, -0.8353646993637085, -0.11775890737771988, 0.6317868828773499, 0.8359242081642151, -0.29471856355667114, -0.14007611572742462, -0.32511162757873535, 0.34610822796821594, 0.5689052939414978, 0.6929083466529846, 1.0876119136810303, 0.8677167296409607, -1.202684760093689, 0.23753303289413452, 0.6809754967689514, -0.2087639421224594, -0.33025825023651123, 0.6333774924278259, 0.5823339819908142, -0.005079062655568123, 0.13669690489768982, 0.8664682507514954, -0.8566608428955078, -1.219977855682373, -0.5172951221466064, 0.29472094774246216, 0.00026931025786325336, 0.4237675666809082], [0.7335034012794495, -0.32028618454933167, -0.7257921695709229, -0.44656288623809814, -0.21729065477848053, 0.17807725071907043, 0.6201643943786621, 1.3104764223098755, 0.7415685653686523, -0.7702442407608032, -0.1655159592628479, 1.1946202516555786, 0.8489315509796143, -0.5794505476951599, -0.12330804765224457, -0.6913287043571472, -0.9128057956695557, 1.3151755332946777, -0.6056386232376099, -0.8272885084152222, 0.875069797039032, -0.22204704582691193, -1.2143646478652954, 0.7776877880096436, 0.6298617124557495, -0.33821362257003784, -0.6005893349647522, -0.4364614486694336, 0.1409037560224533, 0.036638930439949036, 0.10065091401338577, -0.24755939841270447, -0.6750898957252502, 0.3656447231769562, 1.2043306827545166, -0.04270849749445915, -0.2947528064250946, 0.04376254603266716, -0.017611367627978325, -1.0032973289489746, -1.0819627046585083, 0.2863946259021759, -0.06968391686677933, 0.5612842440605164, -0.008392955176532269, -0.5364240407943726, -0.4715201258659363, 0.8613355159759521], [-1.1161110401153564, 0.298693984746933, 0.8166032433509827, 0.40874361991882324, -0.005092802923172712, 0.3744547665119171, -0.1411171853542328, 0.009807195514440536, -1.4326465129852295, 0.4413241744041443, 0.23910576105117798, 0.6905359625816345, 0.31657078862190247, 0.3216969072818756, -1.0490984916687012, 0.1708669364452362, -0.1768418550491333, -0.896876335144043, 0.33565106987953186, -0.29032862186431885, -0.1344282627105713, -0.18994580209255219, 0.8851483464241028, -0.7673282027244568, -0.15933702886104584, 0.24409422278404236, 0.18154427409172058, 0.10620058327913284, 0.8881772756576538, 0.2825431823730469, 0.25669676065444946, 0.3978468179702759, -0.0625399798154831, -0.4725768566131592, 0.6104440093040466, -0.1579037606716156, 0.9391675591468811, -0.09067234396934509, 0.12414994835853577, -0.3876206576824188, 0.4558146595954895, 0.9728633761405945, -1.068130612373352, -0.7471081018447876, -0.15979692339897156, 0.09007424861192703, -0.694396436214447, 0.6378962397575378], [-0.30851709842681885, 0.7773852348327637, 0.19960764050483704, 0.6402029991149902, 0.020022761076688766, 0.5853762626647949, -0.23461684584617615, 0.40325722098350525, 0.09317000210285187, 1.0510590076446533, 1.0176223516464233, -0.39281824231147766, -0.14569659531116486, 0.44409918785095215, 1.1523863077163696, 0.2615007758140564, 0.7666000127792358, -1.2213563919067383, -0.6100950241088867, 0.17178602516651154, 0.3076721429824829, 1.0346671342849731, 0.19402632117271423, -0.7257699966430664, -0.909625768661499, -0.2528647482395172, 0.32303082942962646, 0.13534536957740784, -0.32818567752838135, -0.3674471080303192, -0.4170013964176178, -1.0612314939498901, 0.9164314270019531, -0.7967248558998108, -1.0652213096618652, 0.28335049748420715, 0.5726778507232666, 0.17820146679878235, -0.43001675605773926, -0.22248846292495728, 0.30483412742614746, -0.129110649228096, 0.11118187010288239, 0.19417090713977814, -0.6731905937194824, 0.019519135355949402, 0.27093225717544556, -0.24754033982753754], [0.12066754698753357, 0.38998809456825256, -0.13919569551944733, -0.44176170229911804, 0.4437873959541321, -0.5478907227516174, 0.3478862941265106, 0.07512608915567398, -0.22391578555107117, -0.15056011080741882, -0.009403391741216183, 0.3911822736263275, 1.1301113367080688, 0.2861373722553253, -1.3296488523483276, 0.30799347162246704, -0.07917719334363937, -0.08957146108150482, -0.23280079662799835, -0.38753649592399597, -0.6235681772232056, 0.24317343533039093, 0.966546893119812, -0.2111501842737198, -0.38789939880371094, -0.30783891677856445, -0.7030079364776611, -0.6637535095214844, -0.5485970973968506, 0.42484793066978455, 1.0539014339447021, -0.2641220688819885, -0.3887788951396942, 0.22578424215316772, 0.1821073740720749, -0.08420182764530182, -0.26182880997657776, -0.02244262956082821, 0.05076935142278671, -0.17929528653621674, -0.06565387547016144, -0.05314280092716217, -0.25663626194000244, -0.1791231781244278, -0.3640512526035309, 0.5255488753318787, -1.4650908708572388, 0.2440277487039566], [-0.2637573182582855, -0.12948547303676605, 0.41733360290527344, 0.5475462079048157, -0.6133546233177185, 0.48038649559020996, -0.23946143686771393, 0.15768541395664215, 0.49080899357795715, -0.08750075846910477, -0.14810195565223694, -1.2768770456314087, -0.3836214244365692, 0.17584936320781708, 1.2746639251708984, 0.26846909523010254, 0.6580256819725037, -0.3814305365085602, 0.12344870716333389, 0.9606722593307495, 0.6962941884994507, 0.012624885886907578, -0.7585424184799194, -0.1963919699192047, -0.11605972051620483, 0.49286946654319763, 0.7143161296844482, 0.42475733160972595, 0.0789884626865387, -1.1438908576965332, -1.1564292907714844, 0.0011560876155272126, 0.30807700753211975, -0.22296562790870667, -0.005547904875129461, 0.15250182151794434, 0.05209619551897049, -0.2115900218486786, 0.012844561599195004, 0.2225157469511032, 0.11127514392137527, -0.15653499960899353, 0.013576471246778965, 0.14083853363990784, 0.26786643266677856, -0.003173232078552246, 1.1373714208602905, -0.6289883255958557], [0.8449608683586121, 0.11028510332107544, 0.40230587124824524, 0.16629286110401154, -0.4300561845302582, 0.2047453075647354, 0.1806751787662506, -0.004192320164293051, 0.49730944633483887, 0.23153889179229736, 0.6156054139137268, 0.8357985019683838, 0.33480364084243774, -0.09367572516202927, -0.9316244721412659, -0.43961581587791443, 0.5399428009986877, -0.09081529080867767, 0.42868122458457947, 0.20946739614009857, -0.009867468848824501, 0.6055954694747925, 0.6152465343475342, 0.2709064185619354, -0.8376505970954895, 0.01001442689448595, 0.3514009118080139, 1.3003164529800415, 0.5186246037483215, 0.054201140999794006, 0.054086994379758835, 0.3267654776573181, -0.1443367600440979, 0.32000023126602173, -0.12306451797485352, -0.42682814598083496, 0.2427223175764084, 0.14765697717666626, -0.1609671413898468, -0.4585490822792053, 0.6345610618591309, -0.13789710402488708, -0.6428878903388977, -0.7338647842407227, 0.020915742963552475, -0.13753284513950348, -0.2690569758415222, 0.25386977195739746], [-0.8119717836380005, -0.44942888617515564, -0.1562695950269699, -0.49009591341018677, -0.5498085618019104, -0.17953914403915405, 0.1744161993265152, -0.09270796924829483, -0.05224354565143585, -0.2666829228401184, -0.44483283162117004, 0.683112621307373, -0.715735912322998, 0.058605436235666275, -1.139926552772522, -0.07153292000293732, -0.9238184094429016, 1.0717819929122925, 0.2407831996679306, -0.17696350812911987, 0.46130695939064026, -0.38005179166793823, -0.16862140595912933, 1.2355300188064575, 0.07563010603189468, 0.6269278526306152, -0.01132630743086338, 0.97344571352005, 1.7470834255218506, -0.08432136476039886, 0.015394723042845726, 1.5702950954437256, -0.5947734713554382, 0.729865550994873, 0.42742347717285156, -0.3671957552433014, 0.3958297669887543, 0.21729514002799988, 0.22317764163017273, 0.5895287990570068, 1.4050731658935547, 0.6883424520492554, -0.3170269727706909, -0.4895038604736328, 0.1303453892469406, 0.22032374143600464, -0.7715198993682861, 0.7069659233093262], [-0.4464215338230133, -0.6871923804283142, -0.31527915596961975, 0.5033357739448547, -0.4725980758666992, 0.19622008502483368, -0.509833037853241, -0.3842298686504364, 0.47212526202201843, 0.2585054337978363, 0.9819809198379517, 0.3523479998111725, 0.8297794461250305, 0.031008541584014893, -1.7290982007980347, 0.33089420199394226, -1.2625834941864014, 0.7873722314834595, 0.8410511016845703, -1.573354721069336, 0.7063702344894409, -0.7748389840126038, 1.0343996286392212, 0.764784038066864, -0.47317683696746826, -0.43539634346961975, -0.6532698273658752, 0.8862728476524353, 1.2628459930419922, 0.530917763710022, 1.3381919860839844, 1.3244589567184448, 0.5941876173019409, 1.0899215936660767, 0.2714461386203766, 0.1286747306585312, 0.14106041193008423, -0.09623733907938004, 0.39768970012664795, 1.1499826908111572, 0.607362687587738, 0.43374234437942505, -0.9624584913253784, -0.3677727282047272, -0.554348886013031, -0.2030307501554489, -1.4748677015304565, 0.5622573494911194], [0.5721026062965393, -0.2405099719762802, 0.2555542588233948, -0.7261248230934143, 0.06130768358707428, -0.8946443796157837, -0.310299813747406, -0.09566210210323334, -0.8679836392402649, -0.7273561954498291, -1.1697971820831299, -0.5305252075195312, -0.22728531062602997, -0.2401665598154068, 0.04870009049773216, -1.0723069906234741, 1.4390869140625, 0.09603700041770935, 0.9197520613670349, 1.252846598625183, -1.5845310688018799, 0.4826691448688507, 0.4427965581417084, -0.42228782176971436, 0.799750566482544, 0.3514544665813446, 0.6060276031494141, -1.0014050006866455, -0.4140414595603943, 1.1483502388000488, -0.10792140662670135, 0.49576443433761597, -0.9772670865058899, -0.4160870611667633, 0.40241584181785583, -0.45867839455604553, -0.32298481464385986, 0.528575599193573, 0.091950923204422, -0.518591046333313, -0.5933690071105957, 0.5994324684143066, -0.21929116547107697, 0.0253191739320755, 0.010785723105072975, 0.36100542545318604, 1.7374131679534912, -0.3037787079811096], [1.657808542251587, -0.3368454873561859, -0.45318669080734253, -0.06452874839305878, 1.3944767713546753, -0.0038922324310988188, 0.5950397849082947, 0.9126007556915283, 0.07887518405914307, -0.04871942475438118, -0.2458224594593048, 0.30416634678840637, 0.6338005065917969, -0.6583805084228516, 0.06361857801675797, 0.19568166136741638, -0.17910969257354736, 0.47168636322021484, -0.6243064403533936, 0.19133760035037994, -0.6353671550750732, -0.13104009628295898, -0.007643847726285458, -0.4718513488769531, 0.20507924258708954, -0.8951334357261658, -0.4276978671550751, -0.9000775814056396, -1.514761209487915, 0.37160724401474, -0.25879791378974915, -1.5361175537109375, 0.3741022050380707, 0.16017895936965942, 0.5033937096595764, 0.26907435059547424, 0.1191539540886879, -1.1041066646575928, 0.507928192615509, -0.4469783306121826, -0.29348108172416687, -0.7124447226524353, 0.9883942008018494, 1.0613847970962524, -0.2412152737379074, -0.11560148745775223, 0.45649629831314087, -0.10616796463727951]]}, "dense_i": {"bias": [0.1580950766801834, -0.05454473942518234, 0.48676344752311707, -0.3110981583595276, 0.6946843862533569, -0.5561367869377136, 0.15221714973449707, 0.03181643411517143, -0.5719780921936035, 0.4851875901222229, -0.015498257242143154, 0.17249475419521332, 0.1735464334487915, -0.4447377920150757, 0.46057215332984924, -0.10076767206192017, 0.3895888924598694, -0.610904335975647, 0.24082820117473602, 0.19772164523601532, -1.02584707736969, 0.009408718906342983, 0.7619396448135376, -0.9559678435325623, 0.10181329399347305, -0.10599175840616226, 0.08075130730867386, -0.49041175842285156, -0.47552624344825745, 0.2443791627883911, -0.008944639936089516, 0.014575682580471039, 0.09097042679786682, -0.439164400100708, 0.18948732316493988, -0.05060559883713722, 0.14261901378631592, -0.09710520505905151, 0.4459701180458069, -0.5051445364952087, 0.09296035021543503, -0.22160373628139496, 0.1743035912513733, -0.301515132188797, -0.2616448998451233, -0.7794260382652283, 0.5101618766784668, 0.4594234526157379], "kernel": [[0.470266193151474, -1.4257761240005493, -0.26441633701324463, -1.5244494676589966, -0.5203425884246826, 0.06214259937405586, 0.10056192427873611, -1.1969037055969238, 1.32318913936615, -1.620924949645996, -1.6963716745376587, 0.03614053875207901, -0.20833571255207062, 0.2416367083787918, 1.33992338180542, 0.31660526990890503, 1.2372111082077026, -0.6763949394226074, 1.3310866355895996, 0.343513548374176, -0.8700181245803833, -1.6869009733200073, 1.0393970012664795, 0.2545302212238312, 0.8626578450202942, -0.5173357725143433, 0.20513731241226196, 1.006941795349121, -2.3111484050750732, 0.7383097410202026, 1.7620491981506348, -0.9570728540420532, -0.8256540894508362, 1.7280256748199463, 0.9519037008285522, 0.07635634392499924, -1.5944362878799438, -0.726772129535675, -2.0223987102508545, 1.3289583921432495, 1.4779893159866333, -0.10920363664627075, 0.22613582015037537, 1.0441169738769531, -0.11174027621746063, -0.36332106590270996, 0.7097203135490417, 0.19390426576137543], [0.5373061299324036, -1.0644429922103882, -1.0894039869308472, 1.387603521347046, 0.8295837044715881, 0.565771222114563, 1.2565189599990845, -1.5010735988616943, 0.8839947581291199, 0.3399306535720825, 2.1999688148498535, 0.4303373694419861, 0.3310844600200653, 0.8056264519691467, -1.8470187187194824, -0.24659322202205658, -1.6064743995666504, -0.5378872752189636, 0.31410354375839233, 1.3017466068267822, -2.1249070167541504, -1.3306370973587036, -0.35116395354270935, -1.8144972324371338, -0.615129292011261, 1.5388470888137817, 0.9432660937309265, 0.36644628643989563, 0.19138847291469574, 1.0311051607131958, 0.5846763849258423, -0.670489490032196, -0.34836772084236145, 1.6287076473236084, -0.4072486162185669, -1.6135226488113403, -0.06317771971225739, 2.0480360984802246, -0.63922119140625, 2.0526788234710693, -0.4519282877445221, 1.0070499181747437, -0.7930921316146851, 0.7547998428344727, 1.2263517379760742, 0.2797915041446686, 1.7921453714370728, -0.5855398774147034]]}}, "output": {"layers": {"0": {"bias": [-0.8866907358169556, 0.6865976452827454, 0.5045779943466187, 0.46743813157081604, -0.17290472984313965, 0.1272323727607727, 0.0941099226474762, 0.32915589213371277], "kernel": [[-1.18827486038208, -1.6414247751235962, -0.013683411292731762, -0.7296191453933716, -0.26446533203125, -0.29156842827796936, -0.07656252384185791, -0.6850507259368896], [0.15217582881450653, 0.8480162024497986, -0.3207244277000427, 0.8728035092353821, 0.5206572413444519, 0.2658608555793762, 0.41947421431541443, 0.672077476978302], [0.05890323221683502, 1.7580316066741943, 1.651903748512268, -0.5240951180458069, 0.4786049425601959, 1.314937949180603, 1.7615011930465698, -0.11425391584634781], [-0.08093041181564331, -0.34962818026542664, 0.2816172242164612, -0.7685036063194275, -0.39838752150535583, 0.2977631688117981, 0.688881516456604, -1.1005960702896118], [-1.4105150699615479, -0.21322105824947357, -0.9716463088989258, 0.26930901408195496, 0.3992043435573578, -0.9880218505859375, -0.9431314468383789, 0.6238489747047424], [-0.17036186158657074, -0.7310968637466431, 0.5457876920700073, -1.5103965997695923, -0.4780017137527466, 0.6615037322044373, 0.6516159176826477, -1.2365490198135376], [-1.0103626251220703, -0.8173028826713562, -0.5803006887435913, -0.15880492329597473, 0.1679631769657135, -0.7004796862602234, -0.2503563463687897, -0.2684876322746277], [-0.274892121553421, -0.43356606364250183, 0.42120611667633057, -2.1046087741851807, -0.2444194108247757, 0.3593384921550751, 0.07418041676282883, -1.576234221458435], [1.3599481582641602, -0.3920634984970093, 0.1925726979970932, -0.022619526833295822, -0.33363625407218933, -0.05800146609544754, -0.1093573123216629, 0.3355829119682312], [-0.028573937714099884, 0.6465746760368347, 1.1065212488174438, -0.1970224827528, 0.4881608486175537, 1.639830231666565, 1.7373254299163818, -0.8892396092414856], [0.465067982673645, 0.6063739657402039, -0.35172390937805176, 0.7471311092376709, 0.12774896621704102, 0.11260105669498444, -0.5118743777275085, 0.609295666217804], [1.286376953125, 0.7045331001281738, -0.19125698506832123, 2.1020848751068115, 0.2059842348098755, -0.28602850437164307, -0.2187332957983017, 2.0347044467926025], [1.0837903022766113, 0.24108321964740753, 0.41254255175590515, 0.2993346154689789, 0.14729784429073334, -0.02240532450377941, 0.2790318429470062, 0.6325702667236328], [0.11298269033432007, 0.6839247941970825, 0.5492834448814392, 0.3723369538784027, 1.5302834510803223, 0.28537285327911377, 0.26719382405281067, 0.5625349879264832], [0.986041784286499, -0.5177950263023376, -0.5249812006950378, 0.8416795134544373, -0.07919363677501678, -1.084486722946167, -0.5731257200241089, 1.0045534372329712], [-0.8870072960853577, -1.2910236120224, -0.36481672525405884, 0.13315555453300476, 0.20275917649269104, -0.8156402707099915, -0.6235114932060242, -0.09635776281356812], [-0.28546229004859924, 0.08501484245061874, 0.6239208579063416, 1.027919888496399, -0.8146043419837952, 0.8179028034210205, 0.8327200412750244, 0.969506025314331], [-0.2288055568933487, -0.3645170032978058, 0.5940709114074707, 0.25027450919151306, 0.4616430699825287, 0.8441131114959717, 0.8867312669754028, 0.2881150543689728], [-0.6329569220542908, -0.4455608129501343, 0.05974337458610535, 0.5129258036613464, -1.374022126197815, -0.0695343017578125, 0.3757040202617645, 0.32655206322669983], [0.5197981595993042, 0.20786155760288239, 0.815247654914856, 0.5076693296432495, 0.9803903698921204, 0.38842669129371643, 0.5185966491699219, 0.44177162647247314], [-0.2999032139778137, -0.6810027956962585, 0.2666298449039459, -0.24955372512340546, -0.875978410243988, -0.20098558068275452, -0.14312762022018433, -0.20665282011032104], [-0.6944188475608826, 0.5421324372291565, -1.271661639213562, -0.30226969718933105, 0.7991846203804016, -0.9918144941329956, -1.0702239274978638, -0.7884532809257507], [-0.4673432409763336, 0.29672765731811523, -0.20028553903102875, 0.30496442317962646, 0.2174907773733139, -0.6938231587409973, -0.46305981278419495, 0.46974748373031616], [0.03427177295088768, -0.3819047510623932, -0.06946615874767303, -0.3326750695705414, 0.4598461389541626, 0.10621083527803421, 0.0045193699188530445, -0.27170050144195557]]}, "2": {"bias": [1.4861326217651367], "kernel": [[-3.784417152404785], [-1.5272045135498047], [-3.68931245803833], [-3.6554088592529297], [1.8306888341903687], [-2.9944379329681396], [-3.327979326248169], [-4.477489948272705]]}}}, "output_value": {"layers": {"0": {"bias": [0.19542361795902252], "kernel": [[-0.016185343265533447], [0.006472626700997353], [-0.0157810989767313], [0.05575115606188774], [-0.013922753743827343], [-0.3146044611930847], [0.010417542420327663], [0.006353876553475857]]}}}}