{"attention": {"key": {"bias": [[-1.67831289768219, 1.0093345642089844, 1.5881396532058716, -0.980471134185791, -1.4504145383834839, -0.8282266855239868, 0.6902188658714294, -1.1041001081466675, -0.2432050108909607, 2.199134111404419, -0.9411494135856628, -1.8423100709915161, 2.067352056503296, -1.4545799493789673, 1.2845624685287476, -0.31382066011428833]], "kernel": [[[0.7579119801521301, -0.344163715839386, -0.18022377789020538, 0.714872419834137, 0.90550297498703, 0.2766888439655304, -0.4972328245639801, 0.06197446212172508, -0.5089662075042725, -0.235742449760437, 0.8597690463066101, 0.7508655786514282, -0.43898800015449524, 0.07786523550748825, -0.8442640900611877, 1.1366316080093384]], [[-0.1604800522327423, 0.6220614314079285, 0.5559862852096558, 0.00846747774630785, -0.46414706110954285, -0.35329532623291016, 0.846830427646637, -0.09035743772983551, 0.1902301013469696, 0.07614832371473312, 0.12839646637439728, -0.9784643054008484, 0.298616886138916, -0.6215327978134155, 0.17674371600151062, -0.27370497584342957]], [[-0.5438066124916077, 0.30841678380966187, -0.013040446676313877, 0.13367289304733276, 0.1299920380115509, -0.8422273993492126, -0.281939297914505, 0.24329151213169098, 0.09219036996364594, 0.15556566417217255, 0.0915943905711174, -0.20826886594295502, 0.40773507952690125, -0.3241438567638397, 0.32714009284973145, 0.20458173751831055]], [[0.3318689167499542, 0.27436959743499756, 0.2863507866859436, -0.13551874458789825, 0.21275196969509125, 0.33033621311187744, 0.3424874544143677, -0.20370356738567352, -0.4985769987106323, -0.17094436287879944, 0.39929598569869995, 0.644476592540741, -0.06397625058889389, 0.45381224155426025, -0.2844185531139374, 0.07090602070093155]], [[0.288154661655426, -0.311221718788147, -0.7125346064567566, 0.8204250335693359, -0.07077039033174515, 0.3612435460090637, -0.32859861850738525, 0.5959500074386597, -0.30925729870796204, -0.3840191662311554, 0.5872992873191833, 0.29154402017593384, -0.5474531054496765, 0.09998419880867004, -0.1362951397895813, -0.08707466721534729]], [[-0.11209733039140701, -0.17756599187850952, -0.06350847333669662, -0.08503805100917816, 0.06987887620925903, 0.23747459053993225, -0.2551712691783905, 0.20535913109779358, 0.37852489948272705, -0.24882259964942932, -0.20919406414031982, -0.6106741428375244, 0.19688346982002258, -0.004023062530905008, -0.20696976780891418, -0.7963513731956482]], [[0.3908490538597107, -0.24790149927139282, 0.4878980219364166, 0.04664437472820282, 0.08074382692575455, 0.36896124482154846, -0.19467952847480774, 0.3964148461818695, -0.35488009452819824, -0.4940558671951294, -0.054620712995529175, 0.1374582052230835, -0.09199477732181549, 0.7193549275398254, 0.3453597128391266, 0.6004766225814819]], [[-1.2313705682754517, 0.719667375087738, 1.415684700012207, -1.1245169639587402, -1.0918885469436646, -1.1308742761611938, 0.6515409350395203, -1.3310489654541016, 0.411323219537735, 1.0796462297439575, -1.0894495248794556, -1.202343225479126, 1.4826297760009766, -1.6701277494430542, 0.9086202383041382, -0.568314254283905]], [[-0.001119359745644033, -0.12236979603767395, -0.04521939903497696, -0.31001511216163635, 0.04075001925230026, 0.029675958678126335, 0.21692083775997162, -0.5402061939239502, 0.07194148004055023, -0.31563428044319153, -0.20661605894565582, 0.24884621798992157, -0.24066291749477386, 0.27770641446113586, 0.2162354290485382, 0.5025016069412231]], [[-0.26475149393081665, 0.241616889834404, -0.21666470170021057, -0.09692332148551941, 0.051544539630413055, 0.06411861628293991, 0.22473426163196564, 0.006874650251120329, 0.7357437014579773, 0.6378618478775024, -0.16205237805843353, 0.010960433632135391, 0.5159704089164734, 0.5439565181732178, 0.16805490851402283, -0.4613315463066101]], [[0.9780313968658447, -0.8348361253738403, -0.18893969058990479, 0.33896419405937195, 0.544887363910675, -0.5098305940628052, -0.9034290313720703, 0.8457232713699341, -1.1928876638412476, -1.0515202283859253, 0.7136777639389038, 0.6420890688896179, -0.41567906737327576, 0.19182227551937103, -0.5478813648223877, 0.7593836188316345]], [[-0.5766896605491638, 0.5173701047897339, 0.8136768341064453, -0.34006866812705994, -0.8034772276878357, 0.24004262685775757, 1.2346986532211304, -0.7286422252655029, 0.4017954170703888, 0.823486328125, -0.2641686201095581, -0.592288076877594, 0.9136324524879456, -0.4146953523159027, 0.8546531200408936, -0.40960028767585754]], [[-0.3874094784259796, -0.37896209955215454, 0.45249226689338684, -0.2314586341381073, -0.49138733744621277, -0.151291623711586, 0.2612605690956116, -0.0059993937611579895, 0.4639941453933716, -0.6620423197746277, -0.17858271300792694, 0.39736756682395935, -0.006104913540184498, 0.4297960102558136, 0.23156104981899261, -0.40336766839027405]], [[0.7664350271224976, -0.5231636762619019, 0.095071941614151, -0.07501884549856186, 0.08835191279649734, -0.07675813138484955, -0.6626108884811401, 0.714073657989502, -0.09372884035110474, -0.49328115582466125, 0.024448389187455177, 0.6934131383895874, 0.10918918997049332, 0.32802337408065796, -0.21085993945598602, 0.425320565700531]], [[-0.3597230315208435, 0.6967011094093323, 1.0482374429702759, -0.7978586554527283, -0.5747361183166504, 0.4516552686691284, 0.44176456332206726, -0.3504598140716553, 0.6816680431365967, 0.49460452795028687, -0.9865645170211792, -0.9599847793579102, 0.7658445835113525, -0.3688138425350189, 0.8618628978729248, -0.9478894472122192]], [[0.7789686322212219, -0.05557841435074806, -0.509438157081604, 0.9176900386810303, 0.543753445148468, 0.13292507827281952, -0.6780127286911011, 0.08560621738433838, -0.7839998006820679, -0.35439929366111755, 0.7269324660301208, 0.5558077692985535, -0.34450697898864746, 0.5466488599777222, -0.476436972618103, 0.8163366913795471]]]}, "out": {"bias": [-0.08487910032272339, 0.20749488472938538, 0.011062921024858952, -0.09938131272792816, 0.10297661274671555, -0.20272871851921082, 0.09339547902345657, 0.3131696879863739, -0.15232336521148682, -0.0890115424990654, 0.11181610077619553, -0.018454646691679955, 0.2772168219089508, 0.37111207842826843, -0.19472937285900116, 0.12943384051322937], "kernel": [[[-0.6180618405342102, 0.30375224351882935, 0.14125630259513855, -0.7146729230880737, 0.7645494341850281, 0.7763833403587341, 0.39999163150787354, -0.16252359747886658, 0.4424589276313782, 0.7336981892585754, -0.1407478004693985, 0.10852537304162979, 0.19998833537101746, 0.6680635213851929, 0.19466236233711243, -0.35699519515037537], [-0.01255890168249607, -0.2734445333480835, -0.1252267211675644, -0.4854710102081299, 0.6970621943473816, 0.6585158705711365, 0.3541105389595032, -0.2989075481891632, 0.5381429195404053, 0.36990511417388916, -0.8846616148948669, -0.18131759762763977, 0.03986860066652298, -0.16007858514785767, 0.06468434631824493, -0.09496068209409714], [0.09001331776380539, -0.022542910650372505, -0.17072398960590363, -0.7075415849685669, 0.03768198564648628, 0.005475310143083334, 0.3874357342720032, 0.42558857798576355, 0.6271742582321167, 0.10672695189714432, -0.09172984212636948, -0.20178081095218658, 0.3684594929218292, 0.23689287900924683, -0.12371549755334854, -0.46083033084869385], [0.3411225378513336, 0.21347576379776, -0.04847988113760948, 0.9344210028648376, -0.39493244886398315, -1.0465967655181885, -0.14974063634872437, 0.43938788771629333, -0.7304864525794983, -0.33949416875839233, 0.23453374207019806, -0.6719523668289185, -0.5747390985488892, 0.02115037478506565, -0.360980749130249, 0.7660450339317322], [-0.6840085387229919, 0.4060756266117096, 0.3781864047050476, -0.41335663199424744, -0.3691791296005249, -0.034193217754364014, 0.08938644081354141, 0.17254847288131714, -0.18682841956615448, 0.5376951098442078, 0.3876945972442627, 0.1497552990913391, 0.2631549835205078, 0.5516767501831055, 0.33841201663017273, 0.3036624491214752], [0.02974678948521614, 0.23579896986484528, 0.11619841307401657, -0.7395549416542053, 0.684601366519928, 0.3652941584587097, 0.3683282434940338, 0.0813615471124649, 0.032378312200307846, 0.6339457631111145, -0.0245672557502985, 0.40960389375686646, 0.7860724925994873, 0.16626183688640594, -0.5338565111160278, -0.10246358811855316], [1.1345643997192383, -1.0950409173965454, -0.5366624593734741, 0.3714476227760315, 0.10719550400972366, -0.08443813771009445, 0.0636269748210907, 0.22509419918060303, -0.2772647440433502, -0.2886032462120056, -0.03203747421503067, -0.7604625225067139, -0.03969799727201462, -0.25658032298088074, -0.612532377243042, -0.06043563783168793], [0.06647289544343948, -1.0658067464828491, -0.45395439863204956, 0.7508759498596191, -0.5378288626670837, -0.36334478855133057, -0.6937218904495239, -0.10032696276903152, -0.09003642201423645, -0.24819506704807281, 0.0063933213241398335, -0.27637359499931335, -1.3447390794754028, -0.922063410282135, 0.09006313234567642, 0.32358747720718384], [0.3088911175727844, -0.41003942489624023, -0.20671109855175018, -0.6803547143936157, 0.4732549488544464, 0.5630198121070862, 0.36726316809654236, -0.47364237904548645, 0.5442305207252502, -0.2264803797006607, 0.01776805706322193, -0.3603070080280304, 0.366030752658844, 0.21867409348487854, -0.30030739307403564, -0.21006634831428528], [0.06928294152021408, 0.05507297441363335, 0.012750720605254173, -0.7458106875419617, 0.26836439967155457, 0.4177309274673462, 0.5773599743843079, 0.4093315005302429, 0.4259065091609955, 0.5902090072631836, -0.1952207386493683, -0.04242730140686035, 0.20344869792461395, 0.2591317594051361, 0.3349796235561371, -0.18517589569091797], [1.0385202169418335, -0.7546448707580566, -0.486191064119339, 0.5000193119049072, 0.07416626065969467, 0.3362990915775299, -0.013258233666419983, -0.43207645416259766, 0.10076168924570084, -0.9451659321784973, -0.08798341453075409, -0.6368226408958435, -0.6440801024436951, -0.6118615865707397, -0.3868868947029114, -0.23077847063541412], [0.4601253569126129, 0.22834022343158722, -0.03913794830441475, 0.16432718932628632, -0.4092215299606323, 0.31339630484580994, 0.050498541444540024, -0.22202076017856598, -0.4013192653656006, -0.3479863405227661, 0.0905955359339714, -0.15301287174224854, -0.1231982633471489, 0.06542529165744781, 0.4295613467693329, 0.08856557309627533], [0.1065882220864296, 0.5700292587280273, 0.11451256275177002, -0.526244044303894, 0.2920902967453003, 0.12408742308616638, 0.34865501523017883, -0.3887064456939697, 0.6570395231246948, 0.16560548543930054, -0.5923281311988831, 0.2656658887863159, -0.06508966535329819, 0.08698108792304993, -0.26997703313827515, -0.14547616243362427], [0.5162461400032043, -0.20594806969165802, -0.44035670161247253, -0.07046319544315338, 0.17208465933799744, 0.004717845935374498, -0.2715071141719818, -0.1093875989317894, 0.31328535079956055, -0.4573332965373993, -0.21863502264022827, -0.19391919672489166, -0.17884008586406708, -0.0612274594604969, -0.25482240319252014, 0.1384040266275406], [0.08911406993865967, 0.3078349828720093, -0.20891794562339783, -1.1202831268310547, 0.8884010910987854, 0.5852587223052979, 0.5580328106880188, -0.5545274615287781, 1.0308476686477661, -0.0005891912151128054, -0.3681357204914093, -0.041161682456731796, 0.4686426818370819, 0.43955597281455994, -0.5331757068634033, -0.9726589322090149], [0.6081973314285278, -0.6965103149414062, -0.5071736574172974, -0.4898073375225067, 0.4104059338569641, 0.13167496025562286, 0.5705242156982422, -0.07839559763669968, 0.4632885456085205, -0.15995606780052185, -0.038923561573028564, -0.6046873927116394, 0.23201216757297516, 0.3703639507293701, -0.1644560992717743, 0.09464141726493835]]]}, "query": {"bias": [[0.242692768573761, -0.08948241919279099, -0.16176371276378632, 0.13829536736011505, 0.14608103036880493, -0.03834380581974983, -0.07027851790189743, -0.23424148559570312, -0.3561941087245941, -0.33750805258750916, 0.34266138076782227, 0.3941512703895569, -0.2635783851146698, 0.21468719840049744, 0.051081158220767975, 0.47432923316955566]], "kernel": [[[-0.9664380550384521, 0.8765887022018433, 0.8160009980201721, -0.5833441615104675, -0.914745569229126, -0.01718325726687908, 0.9970307946205139, -0.8407403230667114, 0.6465091705322266, 1.3401137590408325, -1.0038846731185913, -0.9885196685791016, 0.5985230803489685, -0.925362229347229, 1.1037639379501343, -0.1777774840593338]], [[0.1368332952260971, -0.36686718463897705, -0.029141858220100403, -0.07476886361837387, 0.46738529205322266, -0.2456076592206955, -0.3935355842113495, -0.14427970349788666, -0.579364538192749, -0.9430946111679077, 0.39347365498542786, 0.324106365442276, -0.4749208986759186, 0.3761402368545532, -0.22915729880332947, -0.22192056477069855]], [[0.23198603093624115, 0.3277239203453064, 0.9127243757247925, -0.053606949746608734, -0.12009488791227341, -0.20346002280712128, -0.11781972646713257, -0.18023163080215454, -0.6758122444152832, -0.4022621214389801, 0.28249454498291016, -0.26434215903282166, 0.5171618461608887, -0.6758351922035217, 0.0599357895553112, -0.015530478209257126]], [[-0.13479016721248627, 0.6251659393310547, 1.2214620113372803, -0.3873589336872101, -1.0492193698883057, 0.48235493898391724, 0.9619922637939453, -0.06049349531531334, -0.28093892335891724, -0.13893653452396393, -0.49860188364982605, -0.7622348070144653, 0.43786823749542236, -0.6592010855674744, 0.24884484708309174, -0.5603316426277161]], [[-0.37062498927116394, 0.05405466631054878, 0.3483796715736389, -0.5078192949295044, -0.03697494789958, -0.018196571618318558, 0.34947001934051514, -0.4192635715007782, 0.18201778829097748, 0.6369291543960571, -0.38808831572532654, 0.16093844175338745, 0.5038610696792603, 0.17412687838077545, 0.32648682594299316, 0.22763529419898987]], [[-0.1820051223039627, 0.3248762786388397, -0.023048290982842445, -0.3398079574108124, 0.5616060495376587, -0.40165430307388306, 0.023807073011994362, -0.22617246210575104, 0.06507885456085205, -0.30735063552856445, 0.3017108142375946, 0.236847922205925, -0.2730187475681305, 0.14645497500896454, -0.16165560483932495, 0.7485791444778442]], [[-0.11158010363578796, 0.35745179653167725, 0.2261674553155899, -0.4123183488845825, 0.3861467242240906, 0.307933509349823, 0.4308133125305176, -0.7653431296348572, 0.04583093523979187, 0.26059845089912415, -0.32434120774269104, -0.3258149027824402, 0.41955047845840454, 0.33557260036468506, 0.1697111427783966, 0.29711681604385376]], [[-0.49558210372924805, -0.1803300976753235, -0.2450736165046692, -0.38368460536003113, -0.143425852060318, 0.12539589405059814, 0.07355602830648422, -0.08452830463647842, 0.3723921477794647, -0.2217828333377838, -0.2904834747314453, -0.37425652146339417, 0.21505969762802124, -0.28038498759269714, -0.29943278431892395, -0.33525198698043823]], [[-0.08042841404676437, -0.17632097005844116, -0.2104925960302353, 0.809660792350769, 0.29339009523391724, -0.574059247970581, -0.4713338315486908, -0.04478500783443451, -0.7990513443946838, -0.06701016426086426, 1.062442421913147, -0.17621396481990814, -0.46338173747062683, -0.634390652179718, -0.6385464072227478, 0.976309597492218]], [[1.1046228408813477, -0.9718204736709595, -1.5364081859588623, 0.7630200982093811, 0.6508485078811646, 0.9715442657470703, -1.5868980884552002, 0.842775821685791, -0.5876317620277405, -1.219163179397583, 0.8285019397735596, 1.508233666419983, -1.2320826053619385, 1.4624919891357422, -1.014784574508667, 0.41556644439697266]], [[-0.7217233777046204, 0.20858150720596313, -0.3567260205745697, -0.26528772711753845, 0.16078847646713257, -0.7510254383087158, 0.24778978526592255, -0.9544111490249634, -0.1796921193599701, 1.0924062728881836, -0.11034084111452103, -0.5765721797943115, 0.6364317536354065, -1.1562161445617676, 0.028281642124056816, 0.4947754740715027]], [[0.7723318338394165, -0.8799358010292053, -1.2575111389160156, 0.6951842904090881, 1.1327027082443237, 0.30590030550956726, -1.0723891258239746, 0.6416714787483215, -0.8048563003540039, -1.2792139053344727, 1.050230860710144, 1.7242087125778198, -1.9375379085540771, 0.9939872622489929, -1.27360999584198, 0.8097655177116394]], [[-0.6534521579742432, -0.05975237861275673, 0.3884953260421753, -0.2217160165309906, -0.4555540084838867, 0.13397876918315887, 0.522773265838623, -0.3615175485610962, 0.8798303604125977, 0.6898258924484253, -0.733326256275177, -0.6329050064086914, 0.7115973234176636, -0.24532704055309296, 0.2723352015018463, -1.0254756212234497]], [[0.6415359973907471, -0.36717572808265686, -0.8560464978218079, 0.2787284553050995, 1.0771961212158203, 0.47951480746269226, -0.12827065587043762, 0.051426857709884644, -0.7048428058624268, -1.399072527885437, 1.0352365970611572, 1.2611924409866333, -1.5337715148925781, 0.9417535066604614, -0.36694255471229553, 0.4938550293445587]], [[1.066232681274414, -0.5522230267524719, -1.1553308963775635, 0.9290052056312561, 0.507637083530426, 0.5861715078353882, -0.9188437461853027, 0.5476614832878113, -0.46642744541168213, -0.7992237210273743, 0.505271852016449, 1.0148024559020996, -0.9744923114776611, 0.458697110414505, -1.154270052909851, -0.10127690434455872]], [[-0.5086466670036316, 0.9964861273765564, -0.06149596720933914, -0.19125056266784668, 0.13320203125476837, -0.6372681260108948, 0.5101742148399353, -0.9960760474205017, -0.2981942892074585, 0.572969377040863, 0.06309721618890762, -0.09860235452651978, 0.4837198257446289, -0.8044007420539856, 0.3077544569969177, 0.6958189010620117]]]}, "value": {"bias": [[0.10900651663541794, -0.13616950809955597, 0.07042715698480606, 0.040117014199495316, 0.10299453884363174, 0.19551114737987518, -0.11213988810777664, -0.2101162225008011, -0.008251911960542202, 0.07322107255458832, -0.26480385661125183, -0.07236570864915848, 0.03466395288705826, 0.036955952644348145, 0.04704628884792328, 0.030412450432777405]], "kernel": [[[0.14028869569301605, -0.2076156884431839, -0.11400368809700012, -0.22625845670700073, 0.22573056817054749, 0.16514812409877777, -0.6315104961395264, -0.4010135233402252, 0.4727475643157959, 0.3650704622268677, 0.007071222644299269, -0.3185337781906128, 0.24435214698314667, -0.0035523236729204655, 0.4709221124649048, -0.10942409187555313]], [[-0.08107923716306686, -0.006996876560151577, 0.22243130207061768, 0.39575812220573425, 0.08154696226119995, -0.2093827724456787, -0.11447460949420929, 0.2044043242931366, 0.04474204033613205, -0.1411340832710266, -0.2805531620979309, 0.10565347224473953, 0.12344293296337128, -0.06839628517627716, -0.1340607851743698, 0.32279646396636963]], [[0.9563146829605103, 0.6446065902709961, 0.5299348831176758, -0.3658067584037781, 0.2365548014640808, 0.512021005153656, 0.41946664452552795, -0.5985273718833923, 0.3035729229450226, 0.6410762071609497, -0.16837334632873535, -0.3474942147731781, 0.33489930629730225, 0.0006097519653849304, 0.3813215494155884, -0.21171928942203522]], [[-0.217598557472229, -0.6313966512680054, -0.6623386144638062, -0.04163101688027382, 0.8834291100502014, -0.5270921587944031, -0.4106225371360779, 0.355217307806015, -0.7588286995887756, -0.30202120542526245, -0.9384522438049316, 0.4777887463569641, -0.13686326146125793, -0.42860645055770874, -0.9324136972427368, -1.05833101272583]], [[0.36286279559135437, -0.26168233156204224, -0.0056051514111459255, 0.14654752612113953, 0.11174874752759933, -0.024530651047825813, -0.24453161656856537, 0.38881927728652954, -0.4225331246852875, -0.37826216220855713, 0.05291145294904709, 0.15005885064601898, 0.11212479323148727, 0.20620375871658325, -0.33280298113822937, -0.6657711863517761]], [[-1.3490535020828247, -1.3011796474456787, -0.9201070070266724, 1.3847473859786987, -0.05961410328745842, -1.3366420269012451, 0.39086171984672546, 0.9955651760101318, -0.838413655757904, -0.8087128400802612, 0.7191740274429321, -0.5137022733688354, -1.3246852159500122, 0.4568823277950287, -1.0347844362258911, -0.8745324611663818]], [[0.007846599444746971, -0.20980191230773926, -0.06265684962272644, 0.21083368360996246, 0.4679161012172699, 0.3814893662929535, -0.5439729690551758, -0.5865038633346558, -0.6111742258071899, -0.02266588807106018, -0.21080178022384644, 0.1571328192949295, -0.28164932131767273, -0.6596802473068237, -0.10051125288009644, 0.21518653631210327]], [[-0.20020528137683868, 0.18147748708724976, -0.03560308739542961, -0.28933826088905334, -0.2740148901939392, 0.25893065333366394, 0.26746484637260437, -0.4173486828804016, 0.23909740149974823, 0.0933786928653717, 0.3723982274532318, -0.20979149639606476, 0.06404312700033188, 0.1931963562965393, 0.5729257464408875, 0.528266191482544]], [[1.0199952125549316, 0.45629748702049255, 0.5629156231880188, -0.8352257609367371, 0.8095079660415649, 0.3460952043533325, -0.9529016017913818, -0.9800746440887451, 0.649048924446106, 0.8473101854324341, -1.0959184169769287, -0.2830565571784973, 0.36628177762031555, -0.3356966972351074, 0.9701433777809143, -0.4368855953216553]], [[0.34411799907684326, -0.27956831455230713, 0.25533053278923035, -0.4329063296318054, 0.5328372120857239, 0.41175615787506104, 0.0014837727649137378, -0.41676145792007446, 0.12808822095394135, 0.6702200174331665, -0.009568299166858196, 0.0779610276222229, 0.5000548362731934, 0.014044979587197304, 0.4942810833454132, -0.09268152713775635]], [[-0.27377980947494507, -0.005501159932464361, -0.26397404074668884, -0.0701274499297142, -0.03417420759797096, 0.3939911425113678, -0.0013642943231388927, 0.05682806670665741, 0.33129698038101196, 0.15486881136894226, -0.2401343584060669, 0.5414893627166748, 0.10699345916509628, 0.4454188942909241, -0.322438508272171, -0.557052493095398]], [[-0.11675866693258286, -0.17179684340953827, -0.20308393239974976, 0.6985519528388977, 0.22508248686790466, 0.19317956268787384, 0.03988755866885185, -0.01737101934850216, 0.1378094106912613, -0.17360050976276398, -0.27814146876335144, 0.23426425457000732, 0.018277430906891823, -0.4090731739997864, -0.12177257239818573, -0.27657225728034973]], [[-0.3934791684150696, -0.49938634037971497, -0.32018929719924927, -0.2829068601131439, -0.038866329938173294, 0.00756019726395607, 0.44635531306266785, 0.14711891114711761, -0.36982715129852295, -0.09259237349033356, 0.5249247550964355, -0.299116313457489, 0.12886102497577667, 0.5102217197418213, -0.19020894169807434, 0.3142342269420624]], [[-0.21465517580509186, -0.4224449694156647, -0.5531336665153503, -0.5530430674552917, 0.34615465998649597, 0.11129114776849747, -0.5637829303741455, -0.46708521246910095, -0.6613625288009644, -0.15293225646018982, -0.4947555661201477, -0.42292267084121704, 0.015019193291664124, -0.22895626723766327, -0.021887078881263733, 0.19079838693141937]], [[-0.12150213122367859, -0.029816050082445145, -0.030136117711663246, 0.2817072868347168, 0.254698783159256, -0.10105013102293015, 0.3681468367576599, 0.010953371413052082, -0.06933464854955673, -0.30005908012390137, 0.011865755543112755, -0.12554998695850372, -0.19671882688999176, 0.45049530267715454, -0.4187989830970764, 0.05479257553815842]], [[0.6685078144073486, -0.30709972977638245, 0.33871832489967346, -0.001774135627783835, 0.06653951853513718, 0.5394686460494995, 0.6202407479286194, -0.2524411976337433, 0.11096188426017761, 0.21278677880764008, -0.07904627174139023, 0.22615011036396027, 0.09941420704126358, 0.10879750549793243, 0.5983736515045166, 0.6354490518569946]]]}}, "global_gru_cell": {"dense_h": {"kernel": [[-0.500968873500824, -0.5330612063407898, -0.5390424132347107, 0.6017311215400696, -0.39502567052841187, -0.58734130859375, 0.027911562472581863, -0.5345004796981812, 0.6114881038665771, -0.6296560168266296, 0.4656493067741394, 0.0870586484670639, -0.33326029777526855, 0.08558596670627594, 0.007327664643526077, 0.28067705035209656, -0.6849055886268616, -0.9112529158592224, 0.7466329336166382, 0.09527161717414856, -0.5522427558898926, 0.6787548065185547, 0.17079748213291168, -0.6437159180641174], [0.6726410388946533, 0.1782422661781311, 0.00537098478525877, -0.11497349292039871, -0.10631148517131805, 0.21660687029361725, 0.20943757891654968, 0.047142092138528824, 0.22946961224079132, 0.08550898730754852, -0.5491435527801514, -0.30192628502845764, 0.18061800301074982, 0.321847528219223, -1.0398460626602173, 0.041174713522195816, 0.2693641483783722, -0.46717557311058044, 0.039290037006139755, -0.5785441994667053, -0.5103448629379272, -0.12942147254943848, -0.6610311269760132, 0.4544747471809387], [0.36806178092956543, 0.34027543663978577, 0.3012259602546692, -0.642117977142334, 0.22506850957870483, 0.9365627765655518, -0.40555763244628906, 0.3019157350063324, 0.255507230758667, -0.01826978474855423, -0.43002375960350037, -0.46714308857917786, -0.017873473465442657, -0.8158442378044128, -0.031027531251311302, -0.642335057258606, 0.5154460668563843, 0.7692055702209473, -0.4728602468967438, 0.09150750935077667, -0.0940149649977684, -0.47457370162010193, -0.3401013910770416, 0.6391580700874329], [0.6541809439659119, 0.3574952781200409, 0.5883155465126038, -0.033421605825424194, 0.6273629069328308, 0.3004975914955139, 0.06104027107357979, 0.6048771739006042, -0.38461124897003174, -0.11196520179510117, -0.403800368309021, -0.15145063400268555, -0.024678193032741547, -0.6741916537284851, -0.4449334144592285, 0.09536262601613998, 0.04270460084080696, 0.8557570576667786, -0.7796883583068848, -0.34862640500068665, 0.45823124051094055, 0.027654917910695076, 0.38244912028312683, 0.6448029279708862], [-0.11499644070863724, 0.5804035663604736, 0.39745837450027466, -0.14180469512939453, 1.035602331161499, -0.9485864639282227, -0.08212518692016602, 0.6407425403594971, -0.39076539874076843, 0.08463045209646225, -0.781212329864502, -0.10594896227121353, -0.0014882341492921114, -0.3982001543045044, -0.2701907455921173, -0.874409019947052, -0.25604894757270813, 0.3639463782310486, 0.024703655391931534, -0.10833863168954849, 0.2665058970451355, 0.5547052621841431, -0.03996923938393593, 0.2718695402145386], [-0.041285254061222076, 0.6701393127441406, 0.6737434267997742, -0.621633768081665, 1.0333954095840454, 0.48775556683540344, 0.05351712554693222, 0.7563431262969971, -0.07544905692338943, -0.13579298555850983, -0.48165836930274963, -0.9154900312423706, 0.14845798909664154, -0.42954134941101074, -0.27249014377593994, -0.9050332307815552, -0.35643064975738525, 0.765555739402771, -0.7450704574584961, 0.028723672032356262, 0.6223943829536438, -0.5516340136528015, 0.24549557268619537, 0.5711072683334351], [0.40483197569847107, 0.8184759616851807, 0.6136552691459656, 0.1887521743774414, 0.8390946388244629, 0.7112743854522705, -0.2874194383621216, 0.18359144032001495, -0.04825490713119507, -0.59676194190979, 0.18527860939502716, -0.3396608233451843, 0.47149819135665894, 0.11745164543390274, 0.3380255401134491, -0.5158718824386597, 0.170719176530838, 0.7007759809494019, -0.8548339605331421, -0.23479637503623962, 0.21228238940238953, -0.46153029799461365, -0.5141581892967224, 0.6666721701622009], [0.14964233338832855, 0.18044009804725647, 0.26519858837127686, 0.39728131890296936, -0.277218222618103, -0.19969940185546875, 0.3073681592941284, -0.3909330666065216, -0.0806194543838501, 0.48921316862106323, 0.8540235161781311, 0.20874375104904175, -0.20793402194976807, 0.09056229144334793, -0.27980801463127136, 0.8692545294761658, 0.20430974662303925, -0.17074957489967346, 0.5486660003662109, -0.30556178092956543, -0.17230446636676788, 0.006939657498151064, 0.2806072533130646, -1.0089539289474487]]}, "dense_i": {"bias": [-0.057963114231824875, 0.4714830219745636, 0.7103732228279114, -0.32596468925476074, -0.18027326464653015, -0.06163766607642174, 0.05568045377731323, 0.3512176275253296, -0.869554340839386, 0.14145253598690033, -0.6897226572036743, -0.1096721813082695, -0.5705966353416443, -0.8403840065002441, -0.7984094619750977, -0.29097896814346313, -0.03597738593816757, 0.478799432516098, -0.07463493198156357, -0.3355557918548584, -0.5907553434371948, 0.03631449118256569, -0.04904727637767792, 0.20047251880168915], "kernel": [[0.11938629299402237, -0.07121284306049347, 0.4983134865760803, 0.2998253107070923, -0.5343895554542542, 0.21881742775440216, -0.2605595588684082, -1.007332682609558, -0.2665071189403534, -0.5059816241264343, 0.21351459622383118, 0.02563253417611122, -0.7036939263343811, -0.7146414518356323, -0.9106115102767944, -0.277951717376709, 0.3474165201187134, 0.3819308876991272, -0.23351651430130005, -0.7930479645729065, -0.5281589031219482, -0.6853076219558716, 0.10113047808408737, -0.19986627995967865], [-0.049719102680683136, -0.8598807454109192, -0.70801842212677, 0.32190367579460144, 0.6461947560310364, 0.3671034574508667, 0.21581226587295532, -0.20742325484752655, 0.5558241605758667, 0.3566872477531433, 0.7331796884536743, -0.47144588828086853, 0.27859166264533997, 0.4856933355331421, -0.1796026974916458, 0.5204652547836304, -0.1220034509897232, -0.3993377983570099, -0.05193088576197624, -0.005115433130413294, 0.1379493623971939, 0.2171507030725479, -0.30220723152160645, 0.42828312516212463], [0.01928013749420643, 0.11246741563081741, 0.7022154331207275, -0.3041313886642456, -0.02480122447013855, 0.662599503993988, -0.5509287714958191, 0.7042984366416931, -0.09769035130739212, 0.1613939106464386, 0.330524206161499, 0.02959841676056385, 1.498293161392212, -0.08720262348651886, 0.13757653534412384, -0.1524636298418045, -0.30328238010406494, 0.16153284907341003, 0.17772208154201508, 0.3627663552761078, -0.14071063697338104, 0.36940836906433105, 0.760418713092804, 0.03464389592409134], [-0.05062220245599747, 0.6282335519790649, 1.1814525127410889, -0.26867371797561646, -0.4330824613571167, 0.4550316631793976, -0.03672010824084282, 0.23323768377304077, -0.5018654465675354, -1.3536731004714966, -0.4669668972492218, -0.3107038736343384, -0.5361311435699463, -0.2058611661195755, -0.21095015108585358, -0.03773209825158119, -0.7405667304992676, 0.5805355906486511, 0.39413538575172424, 0.30728936195373535, -0.47635430097579956, 0.5600700378417969, 0.515439510345459, -0.5338822603225708], [0.005929640028625727, -0.5690386295318604, -0.4882107675075531, 0.5532967448234558, 0.22939810156822205, -0.4360314607620239, 0.03731658309698105, -0.18925195932388306, 0.08101806044578552, 0.7776464819908142, 0.28335627913475037, 0.20881332457065582, -0.18602408468723297, 0.42593303322792053, 0.24456794559955597, 0.4814223051071167, 0.7823840379714966, -1.0617539882659912, -0.2109002321958542, -0.3339918553829193, -0.2883756756782532, -0.9578632116317749, -0.7815588712692261, 0.5277711153030396], [0.07882969081401825, -0.7621962428092957, -0.8481281399726868, 0.5179977416992188, -0.07771340757608414, -0.035056550055742264, -0.2297605276107788, -0.64366215467453, 0.9044055342674255, 0.5056144595146179, 0.7146400213241577, 0.5136594176292419, 0.47807249426841736, 0.4286123514175415, 0.8248078227043152, 0.3488808572292328, 0.4125927984714508, -0.36754634976387024, -0.06817714869976044, 0.31727463006973267, 0.33549848198890686, -0.2411530613899231, -0.3424306809902191, -0.20210348069667816], [0.3877882659435272, 0.08647327125072479, -0.7437055706977844, 0.306412011384964, 0.44160619378089905, -0.5811892747879028, 0.5081072449684143, -0.5336318612098694, -0.7490673065185547, 0.4722902178764343, -0.17657886445522308, -0.028810730203986168, -0.5786328911781311, -0.10581156611442566, -0.13432307541370392, 0.9053714871406555, 0.2849116623401642, 0.22480405867099762, -0.6974092721939087, -0.314473956823349, -0.3599911034107208, -0.4274529218673706, -0.13192082941532135, 0.6010719537734985], [-0.28815674781799316, 0.7276973724365234, 0.5725156664848328, -0.0064805736765265465, -0.55646812915802, 0.29177331924438477, -0.3100608289241791, 0.24395550787448883, -0.6598021388053894, -0.6309105753898621, 0.056673191487789154, -0.5530081987380981, -0.43757131695747375, -0.6604090332984924, 0.11337172240018845, -0.40051671862602234, -0.9581152200698853, 0.12002741545438766, 0.021677598357200623, 0.36377856135368347, -0.6513880491256714, 0.7081590294837952, 0.3063492476940155, 0.2704986333847046], [0.5197709798812866, -0.314220130443573, -0.6312326192855835, 0.34891432523727417, 0.37637966871261597, -0.1617363691329956, -0.01221007015556097, -0.6479360461235046, 0.6423646807670593, 1.29257071018219, 0.31329306960105896, -0.06022985279560089, 0.38466405868530273, 0.5836886763572693, 0.18131199479103088, -0.09433148801326752, 0.9071550369262695, -1.0492703914642334, -0.21145856380462646, -0.6774652600288391, 0.7328170537948608, -0.94415682554245, -0.6484621167182922, -0.006620089989155531], [-0.010751633904874325, -0.7355496883392334, -0.8558457493782043, 0.37372326850891113, 0.3159887492656708, 0.17011485993862152, 0.14255759119987488, -0.7112581729888916, 1.011299967765808, 0.4453393220901489, 0.6586130857467651, 0.5601698160171509, 0.529129147529602, 1.2158690690994263, 0.9602581262588501, 0.7005096077919006, 0.27206408977508545, -0.21962866187095642, 0.10740222036838531, -0.17884434759616852, 0.18522287905216217, -0.11725285649299622, 0.19515608251094818, 0.2803609371185303], [0.22230899333953857, 0.20450656116008759, 0.6860108971595764, 0.1266624480485916, 0.6735780239105225, 0.3655325472354889, -0.12063246220350266, 0.789848804473877, -1.3615667819976807, -0.3359547555446625, -0.523654043674469, -0.5880876779556274, -0.2938567101955414, -1.0402517318725586, -1.0597333908081055, -0.35935497283935547, -0.025867054238915443, 0.8891808986663818, 0.012978867627680302, 0.5824717283248901, -0.4657338857650757, 0.3184773921966553, 0.3777589797973633, 0.2663559019565582], [0.3595533072948456, -0.44040992856025696, -1.222864031791687, 0.37770530581474304, 0.2245042622089386, -0.5018407106399536, 0.3923780024051666, -0.2039220631122589, 0.8998388051986694, 0.8946560025215149, 0.5336679220199585, 0.45172396302223206, 1.1382595300674438, 0.12278281152248383, 0.3199441730976105, 0.2875958979129791, -0.16340290009975433, -0.11257383972406387, 0.3653709590435028, 0.4244466722011566, 0.55446457862854, -0.025796065106987953, -0.40324679017066956, 0.11156246066093445], [-0.1527460664510727, 0.007604339625686407, -0.1523929387331009, 0.7232869863510132, 0.5432736277580261, -0.037082489579916, 0.3116695284843445, -0.07860824465751648, 0.07219215482473373, 0.3559337258338928, -0.3664378523826599, -0.05037519335746765, -0.44081932306289673, 0.3491145968437195, -0.303871214389801, 0.43647927045822144, 0.1539747416973114, -0.4336279332637787, -0.2581474184989929, -0.22288140654563904, -0.20206500589847565, -0.15324856340885162, -0.669985830783844, 0.6715915203094482], [0.06516264379024506, -0.4706680178642273, -0.15394769608974457, 0.3160870671272278, 0.36542022228240967, -0.3257941007614136, 0.27134671807289124, -0.7218986749649048, 0.047348279505968094, -0.2204863727092743, 0.16514623165130615, -0.4092442989349365, -1.1929527521133423, -0.672965943813324, -0.23548099398612976, 0.3577568233013153, 0.680777907371521, 0.013942576013505459, -0.422315776348114, 0.03254883363842964, -0.34501349925994873, -0.5326876044273376, -0.4243585467338562, 0.6494554877281189], [-0.022735746577382088, 0.9094433188438416, 0.7687929272651672, -0.08481617271900177, -0.5313677191734314, 0.5246310234069824, -0.6698043942451477, 0.4616003930568695, -0.18847107887268066, 0.1808067113161087, 0.673024594783783, 0.5477187633514404, 1.747719407081604, 0.36650508642196655, 0.8197299838066101, -0.43682003021240234, 0.04330775886774063, -0.4440896809101105, 0.4687618613243103, -0.21449334919452667, 0.15185515582561493, 0.4696926474571228, 0.384692519903183, -0.09555634111166], [0.4821869432926178, 0.7112212777137756, 1.3644510507583618, 0.07518833130598068, -0.4259644150733948, 0.45590999722480774, -0.3059087097644806, 0.6158583164215088, -0.9265259504318237, -0.617336094379425, -0.47120213508605957, 0.17995601892471313, -0.387798935174942, -0.3923999071121216, -0.48821449279785156, 0.12792575359344482, -0.43166583776474, 0.534677267074585, 0.09406901150941849, 0.4428614675998688, -0.9139090180397034, -0.04530264064669609, 0.4067821204662323, 0.2726325988769531], [-0.15174327790737152, 0.7553553581237793, 0.42806288599967957, -0.45962145924568176, -0.27319154143333435, 0.19215291738510132, 0.37183740735054016, -0.023083936423063278, -0.7540826201438904, 0.06564207375049591, -1.0119526386260986, -0.11138155311346054, -0.12084092944860458, -0.8414868712425232, -0.6595061421394348, 0.21760958433151245, -0.24803891777992249, 0.4157872796058655, 0.014615402556955814, -0.4422660171985626, -0.5652894973754883, -0.05642471835017204, -0.042418744415044785, 0.4032473564147949], [0.26229000091552734, 0.16652871668338776, 0.03724706918001175, -0.19667662680149078, -0.5703282356262207, -0.07577599585056305, 0.13118650019168854, 0.3917253315448761, -0.7409607172012329, 0.40951788425445557, -0.6982914805412292, -0.4360511600971222, -0.4783519506454468, -0.6387283205986023, -0.9566346406936646, 0.060254987329244614, 0.31475886702537537, 0.40050646662712097, -0.01892554573714733, 0.07384555041790009, -1.5950018167495728, -0.20813918113708496, 0.43637484312057495, 0.3694664537906647]]}}, "gru_cell": {"dense_h": {"kernel": [[0.4560527503490448, -0.15636113286018372, 0.029309609904885292, -0.32468798756599426, -0.13671205937862396, -0.3692629039287567, -0.17695309221744537, -0.5733833909034729, -0.38087886571884155, 0.1126784011721611, 0.12071841210126877, 1.0452724695205688, 0.1572723388671875, -0.07870273292064667, 0.838467001914978, 0.42317935824394226, 0.7036477327346802, 0.2808902859687805, -0.38749226927757263, 0.4432625472545624, -0.11114993691444397, -0.8996469974517822, 0.2461877465248108, -0.22786740958690643, -0.42364323139190674, 0.3537968397140503, -0.5802116394042969, -0.4246368706226349, -0.8031439781188965, -0.5996924042701721, -0.2676437795162201, 0.05170974135398865, -0.1007625088095665, 0.6026256084442139, -0.2036675363779068, -0.13065552711486816, -0.7377263307571411, -0.11177900433540344, -0.18542198836803436, 0.5620335340499878, 0.7325794696807861, 0.08464952558279037, 0.7599864602088928, -0.3651975989341736, -0.4097606837749481, -0.4716469645500183, -0.5424655675888062, 0.677720308303833], [1.0064746141433716, 0.13822747766971588, -0.1356515735387802, -0.3230849802494049, 0.07761196047067642, 0.2999948263168335, -0.775621235370636, 0.028876934200525284, 0.5091881155967712, 0.8619537949562073, -1.381908655166626, -0.0064168330281972885, -0.7584879994392395, 0.25239115953445435, 0.07858899235725403, 0.683597207069397, -0.7844158411026001, 0.36791110038757324, 1.4706904888153076, -0.23151585459709167, -0.21232900023460388, 1.493699312210083, 0.8967154026031494, -0.3326466381549835, 1.3129349946975708, -0.5682206749916077, 0.44960668683052063, -0.3843928575515747, 0.37999629974365234, 0.3193785846233368, 0.5526874661445618, 0.9987884163856506, -0.04397187381982803, -0.9884829521179199, 0.09175121039152145, -0.47564536333084106, 0.336527943611145, 0.6826279163360596, -1.2852047681808472, 0.1540648341178894, -1.1748864650726318, -1.2214291095733643, -0.7659915089607239, -0.6712552905082703, 0.7073360085487366, -0.1912495493888855, 0.4059514105319977, -1.3554645776748657], [-0.4095171093940735, -0.48650532960891724, 0.18474161624908447, -0.41692519187927246, -0.0982016921043396, -0.2512161135673523, -0.25519880652427673, 0.2246880680322647, 0.6219576597213745, -0.8805220723152161, -0.25789254903793335, 0.19468650221824646, 0.03124922141432762, -0.5760648846626282, 0.22879786789417267, 0.13734106719493866, -0.42727038264274597, 0.9950782060623169, -0.1730133593082428, 2.97849702835083, 0.4820775091648102, 0.8280670046806335, -0.3370400369167328, 0.5704081058502197, 0.4407081604003906, 1.6713510751724243, -0.21130596101284027, -0.08844532817602158, -0.03810598701238632, 1.5527751445770264, -0.3088146448135376, 0.1708754003047943, -0.2187347561120987, -0.18874609470367432, 0.906157374382019, -0.9642109274864197, -0.4351739287376404, 0.12261424958705902, -0.2064541131258011, 0.055432405322790146, -0.334415078163147, 0.8210733532905579, 0.05354366451501846, -0.2681606709957123, -0.10912739485502243, -0.5805227160453796, 0.10666447877883911, -0.29603347182273865], [-0.16079071164131165, -0.2776344120502472, -0.28194770216941833, -0.9344506859779358, -0.9066192507743835, 0.7102234959602356, 0.3533124625682831, -0.881699800491333, -0.3489117920398712, -0.937968373298645, -0.12151505053043365, 0.6934722661972046, -0.01586913876235485, 1.00552237033844, -0.19654688239097595, 0.2661353349685669, -0.46608856320381165, 0.5602467656135559, 0.203800231218338, -0.06989466398954391, -0.03807011619210243, -0.6390364766120911, -0.8112319111824036, 0.6238479614257812, 0.7982621192932129, -0.5585835576057434, -0.39579057693481445, -0.4987083673477173, -0.4869660437107086, -0.9601308703422546, 0.36971452832221985, -0.23507598042488098, -0.8961527347564697, 0.8357070088386536, -0.920621931552887, -0.516532838344574, -0.7614868879318237, -0.0705709308385849, -0.02264905907213688, 1.4350346326828003, 0.2565896809101105, 0.6530258655548096, -1.1700160503387451, -0.14264170825481415, 0.524726927280426, 0.8344975113868713, 0.5489128828048706, -0.5501207709312439], [-0.28599414229393005, -0.169016033411026, 0.022200269624590874, 0.00906691886484623, -0.05572900176048279, -0.11645084619522095, -0.024891523644328117, -0.6748313307762146, -1.2188462018966675, -0.2937712073326111, 0.223354309797287, 0.07555553317070007, -0.2283463329076767, 0.3588304817676544, -0.28736722469329834, -0.8778175115585327, 0.4759608507156372, -0.4418566823005676, -0.17048119008541107, -0.3330843448638916, -0.08404431492090225, -1.1174054145812988, -0.29448139667510986, 0.5793224573135376, -0.5686813592910767, 0.7423198819160461, 0.24131359159946442, 0.3229408264160156, -0.11593761295080185, -1.176969289779663, 0.2519419193267822, 0.029878156259655952, 0.22608229517936707, 0.7680345773696899, 0.017188526690006256, 0.25071361660957336, -0.07862596958875656, -0.38953688740730286, 0.33931586146354675, 0.3277052044868469, 0.7293620705604553, 0.5791800022125244, 0.0759405866265297, 0.20098157227039337, -0.4292375147342682, 0.6114007830619812, -0.08165242522954941, -0.09838595986366272], [-0.28440889716148376, 1.3398339748382568, -1.0049530267715454, 0.9858145713806152, 0.7186089754104614, -0.28979063034057617, 0.8285098075866699, 0.4021461308002472, -0.2517669200897217, 0.9388411045074463, -0.0780906230211258, -0.6742762923240662, -0.7369695901870728, 0.28822535276412964, -0.9905505180358887, -0.13796187937259674, 1.1394988298416138, -0.13961149752140045, -0.4677596092224121, -1.045507788658142, -0.8345393538475037, -0.44963106513023376, -0.6275137066841125, 0.8742878437042236, -0.8071016073226929, -0.43204599618911743, 0.4042052626609802, 1.0966424942016602, 0.1211508959531784, -0.46439340710639954, 1.1066429615020752, -0.13010364770889282, -0.7260231375694275, -1.1568413972854614, -1.4514210224151611, 1.5303078889846802, 0.40126708149909973, 0.4252049922943115, 1.190474510192871, -0.7486885786056519, -0.7421987056732178, -0.9677368402481079, -0.16556577384471893, 0.2950103282928467, 0.6463261842727661, 0.18756747245788574, 0.9008970260620117, -0.3562965393066406], [0.6640793681144714, -0.016757572069764137, -0.02988344058394432, -0.35403674840927124, -0.21996714174747467, 0.4657241106033325, -0.011311875656247139, -1.0606989860534668, -0.4595223367214203, 0.3580998182296753, 0.43663179874420166, 0.8784085512161255, 0.10152442008256912, 0.16832570731639862, 0.4089933931827545, -0.6252334117889404, 0.359798789024353, -0.33866843581199646, -0.28923213481903076, -0.5529767274856567, -0.03631522133946419, -1.7078427076339722, 0.4187298119068146, -0.628314197063446, -0.03134804591536522, -0.20728403329849243, -0.11142192780971527, -0.29426008462905884, -0.8257299065589905, -0.7610389590263367, -0.17025870084762573, 0.15854011476039886, 0.09370846301317215, 0.4956870675086975, -0.0535145178437233, -0.029984204098582268, -0.4573696553707123, 0.19107764959335327, -0.11375931650400162, 1.4537196159362793, 0.07808462530374527, -0.133749321103096, 0.13578684628009796, 0.031219616532325745, 0.5429951548576355, -0.04883766174316406, -0.5778543949127197, 0.4582592248916626], [0.8548957109451294, 1.1359449625015259, -0.27096840739250183, 0.11139249056577682, 0.7179627418518066, 0.459939569234848, -0.4527694880962372, 0.5005397200584412, 0.3639846742153168, 0.7081484794616699, -0.7872703075408936, -0.06499771028757095, -1.5635830163955688, 0.6705181002616882, 0.2127014696598053, 0.14647559821605682, 0.10900484025478363, 0.40630558133125305, 1.6289072036743164, -0.798603892326355, 0.13205432891845703, 1.2753031253814697, 1.368972659111023, 0.20978213846683502, 1.5004712343215942, 0.07284553349018097, 0.6133683919906616, 0.45551201701164246, 1.8527394533157349, 0.17514944076538086, 0.7929630279541016, 1.7715028524398804, 0.17007668316364288, -1.6684809923171997, 0.19717846810817719, 0.33969980478286743, 0.6962523460388184, 0.17808011174201965, -0.7401871681213379, -0.7851033806800842, -0.7091620564460754, -0.4946233630180359, -0.648142397403717, -0.2512527108192444, 0.703374445438385, 0.7328234314918518, 0.2599239647388458, -0.24616168439388275], [-0.04338191822171211, -0.9362004995346069, -0.19592997431755066, -0.7100363373756409, -0.9417210817337036, 0.15726356208324432, -0.8544471263885498, -0.9695214629173279, 0.27784302830696106, -0.6244174242019653, -0.9890002608299255, 0.7167631387710571, -0.8302918076515198, -0.13388440012931824, 0.6271139979362488, -0.14849889278411865, -0.26626643538475037, 1.5949053764343262, -0.011864343658089638, 1.190933108329773, 1.5991266965866089, 0.16853179037570953, 1.0809426307678223, 0.470711886882782, 1.8823533058166504, 1.3376234769821167, 0.11897359788417816, -0.7017462849617004, 0.05113934725522995, 0.8469517230987549, -0.2695429027080536, 0.4908255934715271, -0.3494100570678711, 0.8847960233688354, 0.11506526172161102, -1.141181230545044, -1.0357729196548462, 1.1324058771133423, -0.7786538600921631, 1.295296311378479, -0.6637815237045288, 0.9021428823471069, -0.6118038296699524, -0.31294360756874084, 0.699103057384491, -0.3912086486816406, -0.17493273317813873, -0.6890045404434204], [-0.37139904499053955, 0.3056352734565735, 0.46468478441238403, -0.03633209690451622, 0.13693033158779144, 0.15963904559612274, -0.4972243905067444, 0.7326383590698242, 1.0571550130844116, -0.15240530669689178, -0.24221597611904144, -0.9507311582565308, -0.05874829366803169, -0.6076636910438538, -0.11371779441833496, 0.24954760074615479, -0.827130913734436, -0.8526087999343872, 0.4245832562446594, -0.2709805369377136, -0.09551134705543518, 1.5956984758377075, 0.5708136558532715, -1.1029859781265259, 0.007285506464540958, 0.25848817825317383, 0.47727301716804504, 0.08924134075641632, 0.6979953646659851, 0.7070772051811218, -1.1221591234207153, 0.11531612277030945, 0.18022213876247406, -0.6702603101730347, 0.8811651468276978, -0.46615055203437805, 0.02966117486357689, 0.5365128517150879, -0.29860296845436096, -0.7140605449676514, 0.05609333515167236, -0.036821749061346054, 0.214119553565979, -0.18025587499141693, -0.13441434502601624, -0.4027458429336548, -0.3192422091960907, -0.2673141658306122], [-0.6076173782348633, -0.2979618012905121, -0.2487865388393402, 0.5981040596961975, 0.1698974370956421, 0.26945775747299194, 0.3237830698490143, -0.2731938064098358, -0.030797844752669334, 0.1896287053823471, -0.2692933678627014, 0.3667691648006439, -0.27466219663619995, -0.10001643002033234, -0.6593782305717468, -0.4322940409183502, 0.6813958883285522, 0.28445759415626526, -0.8139411807060242, 0.7568464875221252, 1.6086549758911133, -1.2527168989181519, 0.12552188336849213, -0.1521446853876114, 0.1342044472694397, 1.7612996101379395, 0.0881732627749443, 0.6205533742904663, -0.5841453671455383, -0.655561625957489, -0.05680353567004204, 0.5719937086105347, -0.5840960144996643, 0.1098242849111557, 0.049993228167295456, 0.17093558609485626, -0.15195758640766144, 0.7575278282165527, 0.5046381950378418, 0.7111902832984924, 0.7143682837486267, 0.14172208309173584, -0.1272127330303192, -0.05073579400777817, 1.1406158208847046, -1.0088869333267212, 0.10339122265577316, 0.35906732082366943], [0.0888129249215126, 0.42698848247528076, 0.5773416757583618, 0.2835034430027008, -0.18960899114608765, -0.5190402269363403, 0.19409604370594025, 0.1635611206293106, 0.294071227312088, 0.07882270961999893, 0.36735227704048157, -0.11202959716320038, 0.32191845774650574, -0.019358564168214798, -0.6343332529067993, -0.1311221420764923, -0.019039170816540718, -0.7730600833892822, 0.21699045598506927, 0.004627909045666456, -0.2657586932182312, 0.7879898548126221, 0.2528356909751892, 0.04948809742927551, -0.40210583806037903, -0.3173930048942566, 0.9237940907478333, 0.18328745663166046, 0.577248215675354, 0.3032039999961853, -0.1524822860956192, 0.12794014811515808, 0.6810879111289978, -0.6269642114639282, 0.14673706889152527, -0.11243011057376862, 0.28582343459129333, 0.21131157875061035, -0.00017443938122596592, -0.8879032731056213, -0.2937944829463959, -0.48189496994018555, 0.17507131397724152, -0.4485552906990051, -0.13799318671226501, 0.5980912446975708, -0.11554870754480362, -0.12350437790155411], [0.3478712737560272, 0.6443086862564087, -0.5204034447669983, 0.7374696135520935, -0.11325298249721527, 0.32054802775382996, 0.2516614496707916, 0.4606677293777466, 0.22888772189617157, 0.4135289788246155, -0.4540098309516907, -0.6747377514839172, -1.0001060962677002, 0.29763731360435486, 0.3716590702533722, -0.7090173959732056, 0.7234762907028198, 0.9692016839981079, -0.07221658527851105, -1.4726231098175049, 0.09135541319847107, -0.25357356667518616, 0.12205936014652252, 0.5959479808807373, 0.7575101256370544, -0.7327114343643188, -0.11651943624019623, 0.4230941832065582, 0.5479772686958313, -0.3292054831981659, 0.37469595670700073, 0.5263370871543884, -0.8608388304710388, 0.4840778112411499, -0.45944511890411377, 0.8410316109657288, -0.18455316126346588, -0.1053672656416893, -0.7885385155677795, 0.0394165962934494, 0.6690067052841187, 0.1132553443312645, -1.113059639930725, 1.4566023349761963, -0.3865577280521393, 0.37691420316696167, 0.47801563143730164, -0.18140648305416107], [-0.45772895216941833, 0.9194039702415466, 0.3562386929988861, -0.06805360317230225, -0.4742141366004944, -0.8280941247940063, -0.045828938484191895, 1.1629607677459717, -0.07626523077487946, -0.032271433621644974, 1.2580783367156982, -0.1928945928812027, 0.7636473178863525, 0.46779248118400574, 0.5949311256408691, -0.15037494897842407, 0.703217625617981, -1.080925703048706, 0.31148141622543335, -1.3623982667922974, -0.15267960727214813, 0.09240419417619705, 0.6048035025596619, -0.7840574383735657, -0.35322821140289307, -1.4184712171554565, -0.7925737500190735, -0.8907719850540161, -0.7626797556877136, 0.46952274441719055, -0.887910783290863, -1.133906602859497, 0.3716699182987213, -0.4655156135559082, -0.4858623445034027, 0.32995426654815674, -0.33698537945747375, -0.37970849871635437, 0.241657555103302, -0.5623886585235596, 0.2580685615539551, -0.1992652267217636, 0.2938922643661499, -0.256790429353714, -0.24415047466754913, 0.7973480820655823, -0.804129421710968, -0.17397013306617737], [0.18368196487426758, -0.27815571427345276, 0.7570688724517822, -0.030025243759155273, -0.15415020287036896, -0.5727329850196838, 0.13562290370464325, 0.4283890724182129, 0.07141649723052979, -0.2523435652256012, 0.1300220638513565, -0.3169984221458435, 0.7690064907073975, 0.2350543737411499, -0.06709132343530655, 0.31549128890037537, -0.42790916562080383, -0.8602427244186401, 0.25394731760025024, 0.0018718638457357883, -0.33927661180496216, 1.319558024406433, 0.05103599280118942, -0.23817071318626404, -0.004455229267477989, -0.6933748722076416, 0.03999893367290497, -0.048760753124952316, -0.1277666985988617, 0.719706118106842, -0.7955601811408997, -0.20140177011489868, 0.36386120319366455, -0.5393316745758057, 0.2294769138097763, 0.46119752526283264, -0.07787203043699265, 0.07218629121780396, 0.37543684244155884, -0.7832538485527039, -0.08288411796092987, -0.09840532392263412, 0.19833505153656006, -0.19356073439121246, -0.3535122275352478, 0.5576845407485962, -0.3085908591747284, -0.3059065639972687], [0.4181588292121887, -0.32735660672187805, -0.017351722344756126, -0.25442832708358765, 0.2771229147911072, 0.5977358222007751, -0.11156103760004044, -0.8942264318466187, -0.22285772860050201, 0.05932563170790672, -0.03404707834124565, 0.9640710353851318, -0.48418790102005005, -0.0038904198445379734, 0.2556045651435852, -0.4644540250301361, 0.10971532762050629, 0.05594197288155556, 0.16864846646785736, 0.30098167061805725, 0.35589176416397095, -0.5004130601882935, 0.49099576473236084, -0.18384180963039398, 0.46292442083358765, 0.490937739610672, -0.08698064833879471, -0.5792078971862793, -0.4624525308609009, -0.7770905494689941, 0.058120641857385635, 0.588137149810791, 0.34321823716163635, 0.7218897342681885, 0.19364646077156067, -0.7100375294685364, -0.07326555252075195, 0.6795373558998108, 0.1889018714427948, 1.1983599662780762, 0.4155274033546448, 0.04757516458630562, -0.07461393624544144, -0.6673439741134644, 1.3864244222640991, -0.5440239906311035, -0.26357826590538025, 0.22684869170188904]]}, "dense_i": {"bias": [0.12746712565422058, 0.06101230904459953, 0.492229163646698, 0.1816423386335373, 0.2072620987892151, -0.0421452522277832, 0.4238726794719696, 0.624007523059845, 0.4196859300136566, 0.2949330508708954, 0.523060142993927, 0.0130726033821702, 0.5684219598770142, 0.7050473690032959, 0.229826882481575, 0.49915561079978943, -0.17407755553722382, -0.44322124123573303, -0.13501253724098206, -0.44432950019836426, -0.04163166880607605, 0.39948561787605286, -0.05637281388044357, -0.2542235255241394, -0.26994043588638306, -0.2918338477611542, -0.06952647864818573, -0.3355688750743866, -0.21413640677928925, 0.19232717156410217, -0.19400453567504883, -0.043639011681079865, 0.30388590693473816, -0.01193496584892273, -0.15511836111545563, 0.3729078769683838, 0.027054879814386368, -0.1576954871416092, 0.41802749037742615, -0.3939114511013031, -0.04501930624246597, -0.14200091361999512, 0.09574074298143387, -0.2314121276140213, 0.019222168251872063, -0.1190643310546875, -0.13874275982379913, 0.38555359840393066], "kernel": [[-0.08547928184270859, -0.9936487078666687, -1.1170849800109863, -0.7911856770515442, -0.5589817762374878, 1.987475037574768, 0.45058754086494446, -0.44762709736824036, 2.3648386001586914, -1.3182566165924072, -0.7006407976150513, -0.36706751585006714, -0.7082293033599854, 0.6413629055023193, 1.4630922079086304, 1.3291691541671753, 0.8840742111206055, -0.4867681562900543, 0.6017572283744812, 0.4268343150615692, -0.4417850971221924, -0.7351375818252563, 0.6766531467437744, 0.8601312637329102, 0.5027819275856018, -0.5319692492485046, 0.19821695983409882, 1.0010045766830444, -1.456626057624817, 0.6319772005081177, 0.6753668189048767, -0.6472712159156799, -0.9228315353393555, 1.3937240839004517, 1.2550058364868164, -0.4205828905105591, -1.324098825454712, -1.146506667137146, -1.5084731578826904, 0.7422096729278564, 1.1621947288513184, 0.27107203006744385, -0.48835641145706177, 1.0268800258636475, -0.3311811685562134, -0.27041953802108765, 0.3258025646209717, -0.21590597927570343], [0.2538333237171173, 0.4436912536621094, -1.0293450355529785, 2.00663423538208, 0.8178527355194092, 1.2540125846862793, 1.521440863609314, -0.2487693727016449, 0.8589450716972351, -0.8109502196311951, 0.5307432413101196, -0.47121143341064453, 0.7559069991111755, 0.7822903990745544, -0.418340265750885, 0.13338696956634521, -1.5246905088424683, -1.117086410522461, -0.5901742577552795, 0.48061493039131165, -1.5633045434951782, -0.423519492149353, -0.8727312088012695, -1.796075463294983, -0.6060804724693298, 0.8946573138237, 1.4427528381347656, 0.3458942770957947, 0.30562537908554077, 0.2880748212337494, 0.8276234269142151, -0.09554227441549301, -0.608514130115509, 0.8636036515235901, -0.26103639602661133, -1.0191055536270142, -0.4577511250972748, 1.2022454738616943, -0.2528825104236603, 1.3056566715240479, -0.6235582828521729, 1.1914148330688477, -0.656421959400177, 0.8339377045631409, 0.17352943122386932, 0.22038063406944275, 1.5092833042144775, -0.4483279883861542]]}}, "output": {"layers": {"0": {"bias": [-0.547075092792511, 0.11872685700654984, -0.37281334400177, -0.4190795421600342, -0.17553278803825378, 0.4490996301174164, 0.11626499146223068, -0.48245659470558167], "kernel": [[0.21958574652671814, 0.36532604694366455, -0.18289342522621155, -0.8184901475906372, -1.1350390911102295, 0.8704553842544556, -0.15335310995578766, 0.1717468798160553], [0.15564970672130585, -0.8322592973709106, 0.4515308141708374, 0.9303246736526489, 0.5267954468727112, -0.5657435059547424, 0.1580318808555603, 0.1386621594429016], [-0.2913537323474884, -0.3615950644016266, 0.6478836536407471, 0.4405832290649414, 0.5193466544151306, -0.6513862609863281, -0.04993804916739464, 0.41197341680526733], [-0.9934937357902527, 0.013878919184207916, -0.09793801605701447, -0.1254410445690155, 0.015235924161970615, 0.10470769554376602, -0.9248846769332886, -0.2583902180194855], [1.2082823514938354, 0.23302589356899261, -0.18163146078586578, -0.1453763246536255, 0.17702142894268036, 0.1293567717075348, 0.8763368129730225, 1.2797198295593262], [1.4812999963760376, 0.03898594155907631, -0.04351228475570679, 0.054458316415548325, 0.10754948854446411, -0.13868188858032227, 0.5080774426460266, 0.827024519443512], [0.4743136167526245, -0.022071901708841324, -0.1301777958869934, -0.29536330699920654, -0.06144009903073311, -0.2413867563009262, 0.5184605717658997, 0.1783566027879715], [-0.48998209834098816, 0.2910497784614563, 0.2549070417881012, 0.06634587049484253, 0.4130006432533264, 0.17551963031291962, -0.16168572008609772, 0.07622002810239792], [0.689643144607544, -0.01542140543460846, 0.25090929865837097, -0.17392002046108246, -0.23790736496448517, -0.1395035982131958, 0.6369873285293579, 0.7251868844032288], [1.0754705667495728, -0.4630920886993408, 0.8013930916786194, 1.2612006664276123, 0.9785931706428528, 0.05751176178455353, 0.2779572606086731, 0.3742964267730713], [-0.6565095782279968, -0.06108914688229561, 0.09322156757116318, 0.24239526689052582, 0.271839439868927, 0.026793908327817917, -0.3308797776699066, -0.12051340192556381], [-0.06840021163225174, -0.19838114082813263, 0.3473597466945648, 0.8815616369247437, 0.38956165313720703, -0.8399702906608582, 0.2695674002170563, 0.023192407563328743], [0.6919221878051758, 0.08059152960777283, 0.5901283621788025, 0.05433342978358269, 0.5676330924034119, -0.12349504232406616, 0.4350898265838623, 0.09472698718309402], [0.45073074102401733, -0.1547432243824005, 0.7749381065368652, 0.6130033731460571, 0.4809822738170624, 0.2592979669570923, 0.6323137283325195, 0.19009478390216827], [-0.4886508285999298, -0.595679521560669, 0.33182451128959656, 0.4715791344642639, 0.1488339751958847, -0.6195545792579651, -0.34886130690574646, -0.3851180672645569], [-1.051262378692627, -0.11847130954265594, 0.004300293978303671, -0.1397162824869156, 0.08928641676902771, 0.0974101647734642, -0.6771547198295593, -0.7155196070671082], [-0.23726966977119446, -0.03631178289651871, -0.062159471213817596, 0.07267570495605469, -0.04384756460785866, -0.37536925077438354, -0.40655502676963806, 0.08373560756444931], [-0.3113854229450226, 0.03999895229935646, -0.015053072944283485, -0.07175230234861374, 0.5024013519287109, 0.6336107850074768, -0.2648656964302063, 0.551171600818634], [1.410523533821106, -0.2676887512207031, -0.052574027329683304, -0.030652038753032684, -0.7508816719055176, -0.7041975855827332, 1.3199598789215088, 0.38560980558395386], [0.5735777616500854, -0.9635125994682312, 0.2611570954322815, 0.3242524266242981, 0.15310662984848022, -0.1650896668434143, 0.38902783393859863, 0.4874047636985779], [0.1603553593158722, -1.433064341545105, -0.582364022731781, -0.3454570174217224, -0.3596747815608978, -0.278953492641449, -0.2966279983520508, 0.21079300343990326], [0.48107290267944336, -0.8145124316215515, -0.06966758519411087, 0.13415580987930298, 0.077130027115345, 0.11435122042894363, 0.585559070110321, 0.23902077972888947], [0.48117148876190186, -0.02060367912054062, 0.1234075129032135, 0.07472208887338638, -0.11975635588169098, 0.6861099600791931, 0.3183874487876892, 0.21022406220436096], [-1.8863576650619507, -0.3991103768348694, -0.36582401394844055, 0.3826461136341095, 0.41110920906066895, -0.08012828230857849, -1.0835776329040527, -0.9835067391395569]]}, "2": {"bias": [-0.7682592868804932], "kernel": [[2.564992904663086], [-0.924426794052124], [-0.789638102054596], [-0.908577024936676], [-0.7462857961654663], [-0.18144182860851288], [1.3281309604644775], [1.5001274347305298]]}}}, "output_value": {"layers": {"0": {"bias": [-0.17236585915088654], "kernel": [[0.03991294279694557], [-0.08880027383565903], [-0.00774564640596509], [-0.016674278303980827], [-0.3563833236694336], [-0.03756045922636986], [0.03448008745908737], [0.008212152868509293]]}}}}